tree
version=v4
num_class=1
num_tree_per_iteration=1
label_index=0
max_feature_idx=65
objective=regression
feature_names=product_id day_of_month day_of_year week_of_year is_wknd is_month_start is_month_end sales_lag_7 sales_lag_14 sales_lag_30 sales_lag_60 sales_lag_90 sales_roll_mean_7 sales_roll_mean_14 sales_roll_mean_30 sales_roll_mean_60 sales_roll_mean_90 sales_ewm_alpha_099_lag_7 sales_ewm_alpha_099_lag_14 sales_ewm_alpha_099_lag_30 sales_ewm_alpha_099_lag_60 sales_ewm_alpha_099_lag_90 sales_ewm_alpha_095_lag_7 sales_ewm_alpha_095_lag_14 sales_ewm_alpha_095_lag_30 sales_ewm_alpha_095_lag_60 sales_ewm_alpha_095_lag_90 sales_ewm_alpha_09_lag_7 sales_ewm_alpha_09_lag_14 sales_ewm_alpha_09_lag_30 sales_ewm_alpha_09_lag_60 sales_ewm_alpha_09_lag_90 sales_ewm_alpha_08_lag_7 sales_ewm_alpha_08_lag_14 sales_ewm_alpha_08_lag_30 sales_ewm_alpha_08_lag_60 sales_ewm_alpha_08_lag_90 sales_ewm_alpha_07_lag_7 sales_ewm_alpha_07_lag_14 sales_ewm_alpha_07_lag_30 sales_ewm_alpha_07_lag_60 sales_ewm_alpha_07_lag_90 sales_ewm_alpha_05_lag_7 sales_ewm_alpha_05_lag_14 sales_ewm_alpha_05_lag_30 sales_ewm_alpha_05_lag_60 sales_ewm_alpha_05_lag_90 day_of_week_0 day_of_week_1 day_of_week_2 day_of_week_3 day_of_week_4 day_of_week_5 day_of_week_6 month_1 month_2 month_3 month_4 month_5 month_6 month_7 month_8 month_9 month_10 month_11 month_12
feature_infos=[0:132] [1:31] [1:243] [1:35] [0:1] [0:1] [0:1] [-5.0805405563558912:1196.8698862130759] [-5.7922814924840438:1194.5433597685426] [-5.1631088194087926:1029.2531643022273] [-4.2336975412028002:1029.2387109465928] [-3.9219584565940808:1032.7296469320445] [-4.1888001037965479:380.10306480592493] [-3.7178278248682002:263.39771326172485] [-3.776051194265313:163.16558500051315] [-3.8638893666840559:133.14000917390294] [-4.5819725356362095:133.22747014567375] [1.0000000000000009:1185.6850840100988] [1.0000000000000009:1185.6850840100988] [1.0000000000000004:1019.8782041598415] [1:1019.8782041598415] [1:1019.8782041598415] [1.0000000000000002:1140.3255065461401] [1.0000000000000002:1140.3255065461401] [1.0000000000000002:979.73560118014677] [1:979.73560118014677] [1:979.73560118014677] [1:1083.3941089135451] [1:1083.3941089135451] [1:930.24569840248353] [1:930.24569840248353] [1:930.24569840248353] [1:968.71384737858602] [1:968.71384737858602] [1:833.0240343737014] [1:833.0240343737014] [1:833.0240343737014] [1:852.86770343568116] [1:852.86770343568116] [1:737.26666984647136] [1:737.26666984647136] [1:737.26666984647136] [1:617.32845026487507] [1:617.32845026487507] [1:552.35851389842901] [1:552.35851389842901] [1:546.78195428263314] [0:1] [0:1] [0:1] [0:1] [0:1] [0:1] [0:1] [0:1] [0:1] [0:1] [0:1] [0:1] [0:1] [0:1] [0:1] none none none none
tree_sizes=3025 3220 3182 3191 3214 3197 3186 3217 3218 3174 3196 3180 3190 3176 3181 3199 3167 3158 3191 3180 3239 3178 3203 3195 3216 3222 3226 3221 3197 3226 3175 3225 3198 3194 3205 3216 3203 3188 3213 2951 3218 3192 3206 3221 3208 2253 3204 2949 3195 3214 3210 3193 3222 2164 3200 3219 3230 3189 3204 3221 3218 2599 3206 3188 3206 3208 1564 3234 3218 2868 3232 3219 3200 3253 3197 3202 3255 3244 3244 3231 3204 1830 3230 3220 3057 3234 3240 2076 3192 3199 2775 3196 3213 3206 3204 3209 3228 3190 1981 3183 3213 3234 3207 3230 3246 2510 3224 3201 3225 3209 3249 3199 2618 3189 3205 3229 3261 3241 1824 3219 3250 2352 3224 3216 3251 2442 3202 1827 3226 3213 2001 3218 3233 3218 2271 3229 3238 3224 3207 3213 3199 3226 1734 2353 2613 2778 3245 1572 3226 3228 3211 2686 3252 3221 3233 3217 2947 3205 3234 3232 3226 3209 991 2354 3225 2974 3219 3209 3237 2705 3205 3213 2725 3240 1654 3264 3243 2354 3236 3220 3233 3260 2796 3222 1742 3235 3212 3205 3219 3235 2813 3237 3240 2464 3204 3269

Tree=0
num_leaves=35
num_cat=0
split_feature=43 27 27 43 2 43 43 27 27 2 43 24 24 24 27 24 24 24 2 43 27 2 24 2 28 24 27 28 28 2 24 27 28 24
split_gain=3039.66 663.642 377.9 121.351 118.924 168.988 111.647 96.931 54.8428 48.8852 43.8291 39.9836 32.2741 31.2526 26.8442 19.9346 19.9177 19.5059 19.3904 17.8664 15.4663 15.2665 13.7618 13.198 13.1739 13.1627 12.4366 15.1261 9.86368 11.3914 9.72879 9.31097 8.35266 8.2907
threshold=8.7019531525821012 12.618891379853052 5.0308806005943278 3.9095297382198635 13.500000000000002 3.0352211777719385 21.872587675553376 2.3723719924380471 54.376048798981479 13.500000000000002 12.668981234382183 5.8046487659756796 1.0026066691913298 3.4324251659756828 1.099596362997417 4.2821480846545681 5.4662681439554861 1.1425059453671975 31.500000000000004 74.629559626797999 1.0922062015500675 198.50000000000003 7.8981339505959633 133.50000000000003 21.594152184537247 1.0695939131407706 36.525943110499632 9.1102306741461714 9.7810093986306601 110.50000000000001 4.80311768838975 7.7609752423219485 8.5188279293748774 2.1875238242253965
decision_type=10 10 10 8 2 10 10 10 10 2 10 8 10 10 10 8 10 8 2 10 10 2 10 2 10 10 10 8 10 2 10 10 10 10
left_child=2 7 4 21 -1 12 15 13 16 -5 -9 28 18 -2 -7 -3 -8 -11 -6 31 -14 33 -16 -15 -18 -23 27 -19 -12 -30 -22 32 -13 -4
right_child=1 6 3 9 5 14 8 10 -10 17 11 19 20 23 22 -17 24 26 -20 -21 30 25 -24 -25 -26 -27 -28 -29 29 -31 -32 -33 -34 -35
leaf_value=1.7923585218792932 1.7644443776227137 1.840465464326809 1.7432002905854196 1.8968063920437357 1.7426622893815733 1.7385668954548139 1.8836394996605041 1.8118417196301575 1.9587157206233918 1.766268404811677 1.7822370816299364 1.8804343024906107 1.7223812149948436 1.8457312061999689 1.7683029586533989 1.8851580589254211 1.8874826527127975 1.8191956781263339 1.7160166907055816 1.917055648456103 1.7411075928255542 1.7488754042565342 1.7946688066154617 1.7949444470825651 1.931013215156955 1.8042588309573373 1.8455679128898899 1.7843446808088088 1.8679177369425088 1.8155802443826392 1.764914031064853 1.8763770320798283 1.8395458477098134 1.7704617323084109
leaf_weight=469 272 141 268 72 349 270 221 411 420 80 55 66 398 83 1075 461 119 606 1832 62 884 58 242 127 447 142 129 155 54 172 228 212 278 204
leaf_count=469 272 141 268 72 349 270 221 411 420 80 55 66 398 83 1075 461 119 606 1832 62 884 58 242 127 447 142 129 155 54 172 228 212 278 204
internal_value=1.7928 1.86822 1.75638 1.79759 1.7441 1.73981 1.9109 1.825 1.92857 1.81893 1.83908 1.85143 1.72808 1.78668 1.76717 1.87498 1.91191 1.81284 1.72021 1.86563 1.73957 1.76453 1.77314 1.81548 1.92241 1.78779 1.81711 1.81209 1.81976 1.82891 1.7459 1.85926 1.84808 1.75477
internal_weight=0 3601 7461 1714 5747 5278 1809 1792 1207 1042 1310 899 3691 482 1587 602 787 970 2181 618 1510 672 1317 210 566 200 890 761 281 226 1112 556 344 472
internal_count=11062 3601 7461 1714 5747 5278 1809 1792 1207 1042 1310 899 3691 482 1587 602 787 970 2181 618 1510 672 1317 210 566 200 890 761 281 226 1112 556 344 472
is_linear=0
shrinkage=1


Tree=1
num_leaves=35
num_cat=0
split_feature=32 32 10 10 48 48 32 32 48 32 10 17 32 48 10 17 17 32 50 32 17 10 17 10 10 17 10 10 17 10 17 32 17 32
split_gain=2452.61 404.66 219.323 95.5385 90.6374 89.3805 85.0636 69.9194 52.0084 47.748 34.4499 26.8939 32.0986 18.8041 23.0566 17.5847 11.4831 12.1914 11.0684 17.2785 14.8099 11.4428 13.3614 11.5584 10.0685 9.73994 9.59462 9.34401 9.29962 9.04825 9.66644 8.9143 11.2576 7.54792
threshold=10.750749576621503 2.8759724519092442 11.645497528654689 9.5980423686407921 1.0000000180025095e-35 1.0000000180025095e-35 34.413664408920219 1.2389209652016955 1.0000000180025095e-35 21.649818593166234 4.7960762662688969 2.0405937537510135 4.2846005496363508 1.0000000180025095e-35 60.775924029324464 1.0124754850510052 2.0395000000994954 7.9861832844978018 1.0000000180025095e-35 21.245553753561612 29.919609319738342 5.7247783133461043 12.880349005646538 0.33998202678218653 6.1283718968547038 54.790464685137657 1.1996558249350693 -0.21994876386484172 29.919609319738342 3.6050742356664016 4.960003059100214 1.8138575611589594 1.9900019800004951 19.534397002382899
decision_type=10 10 10 10 2 2 10 8 2 10 10 10 8 2 10 10 10 10 2 10 10 10 10 10 8 10 10 10 10 10 10 10 10 10
left_child=1 7 5 8 9 6 18 27 11 -4 15 26 -13 14 16 -9 -5 -18 19 21 -21 22 23 -2 -20 -11 -3 -1 -8 30 -14 -17 -33 -26
right_child=2 3 4 13 -6 -7 28 10 -10 25 -12 12 29 -15 -16 31 17 -19 24 20 -22 -23 -24 -25 33 -27 -28 -29 -30 -31 -32 32 -34 -35
leaf_value=-0.066644061218074577 0.065384098780378111 0.014540750492383674 0.090591373448260126 0.07771391420226012 0.029369292804871557 -0.011021350199977558 0.052224930097895965 -0.030561995096521011 -0.044690993530665676 0.12882321926734441 -0.0053989993719273793 -0.024286366958875247 0.015726583577010646 -0.0059196216752752662 0.097926274613595349 -0.057317352038059648 0.01630674921357491 0.058540582172766642 0.040123705765991301 0.076225917063977411 0.030497151701466038 0.066120545749242116 0.013619229332858343 0.015318963598884358 0.11441930706302327 0.16139391929595898 0.057018603128993789 -0.046462560818767103 0.098025419811670816 0.0162754557699719 -0.0077784728967817511 -0.02065182596449356 -0.046158378708578932 0.057765530062218511
leaf_weight=1361 124 188 277 53 109 168 60 1067 343 361 301 701 221 85 68 588 251 93 78 227 111 87 308 76 60 250 73 316 587 333 797 215 1068 57
leaf_count=1361 124 188 277 53 109 168 60 1067 343 361 301 701 221 85 68 588 251 93 78 227 111 87 308 76 60 250 73 316 587 333 797 215 1068 57
internal_value=0 -0.0283095 0.0782376 -0.000665575 0.116379 0.0585169 0.0651061 -0.0463263 -0.00853007 0.126925 -0.0376789 -0.00311674 -0.00697278 0.037153 0.045014 -0.0409771 0.0352845 0.028132 0.0483054 0.0434926 0.0616089 0.0329438 0.0269072 0.0468669 0.0703251 0.142873 0.0269345 -0.062931 0.0940387 0.0020447 -0.00264449 -0.0468582 -0.0419422 0.0889529
internal_weight=0 8122 2940 3206 997 1943 1775 4916 2656 888 3239 2313 2052 550 465 2938 397 344 1128 933 338 595 508 200 195 611 261 1677 647 1351 1018 1871 1283 117
internal_count=11062 8122 2940 3206 997 1943 1775 4916 2656 888 3239 2313 2052 550 465 2938 397 344 1128 933 338 595 508 200 195 611 261 1677 647 1351 1018 1871 1283 117
is_linear=0
shrinkage=0.1


Tree=2
num_leaves=35
num_cat=0
split_feature=27 8 34 46 27 46 8 34 40 46 40 40 27 27 46 27 8 46 40 27 27 34 40 8 8 34 8 46 46 40 8 34 27 8
split_gain=1854.77 407.19 350.559 153.986 111.752 92.284 85.9297 47.1577 44.4684 38.0637 37.9857 32.1454 30.1908 28.4214 22.641 19.3413 19.125 18.7664 13.9075 13.8843 13.0793 12.9692 12.2844 11.9583 11.6196 10.9391 9.8671 9.60345 8.97485 8.8206 8.57422 7.92358 9.16183 7.90702
threshold=7.7609752423219485 17.351061571121118 6.2989570421256671 15.008147022832057 1.9999000200883266 27.617739226928901 4.6479811601710059 4.0082644565449401 4.5803577446901462 3.984911714436659 13.730635703479654 1.1277579699008078 27.11075819833464 1.1980693140249723 46.496541042004814 20.210345880819713 7.7630855073274345 27.617739226928901 16.963390778710551 32.153875320610815 15.927139720012606 3.9205770280221413 19.562728060970851 31.681766232785442 51.866363907504898 42.069103189329063 9.0156649484565428 8.1857760781133795 7.5678634081480416 5.9028522728512556 4.7728808566106267 1.2042447406519177 5.2675699589705003 1.0000000180025095e-35
decision_type=10 10 10 10 8 10 8 10 8 10 8 10 10 10 10 10 10 10 8 10 10 8 10 10 10 10 10 10 10 10 10 8 10 10
left_child=2 3 4 6 11 10 7 -2 27 16 19 26 21 -10 -5 23 31 24 -14 -3 -7 -8 33 -12 25 -15 -1 -4 -13 -11 -23 -6 -33 -9
right_child=1 5 8 14 9 20 12 22 13 29 15 28 18 17 -16 -17 -18 -19 -20 -21 -22 30 -24 -25 -26 -27 -28 -29 -30 -31 -32 32 -34 -35
leaf_value=-0.058608194436571184 -0.026240876254352098 0.022268453431923105 -0.020176356291840617 0.071698822446834135 -0.047434874583713038 0.094118907500524082 0.0039433828831232833 -0.020672985264345221 -0.02074380299879932 -0.0076651358677042748 0.045921591071109699 -0.0361762726288039 0.027316160517699657 0.020865164063783324 0.12443826645472669 0.10900226414617564 -0.0054541243021474914 0.073584776118488376 0.08445238672271746 0.080730153887129549 0.1540755092125872 0.012409247713199316 0.059821512252092361 0.094210224961623179 0.072742639243665905 0.054682769110102371 -0.027465923597752042 0.023450572983992678 0.0021153888638530461 0.022539017037147793 0.045840451061570399 -0.031495815870317301 -0.012322945612138266 0.020176223901167207
leaf_weight=2122 409 112 275 275 272 61 142 54 99 233 111 668 59 635 130 492 328 110 196 64 342 101 67 114 56 112 115 59 67 161 357 2085 289 290
leaf_count=2122 409 112 275 275 272 61 142 54 99 233 111 668 59 635 130 492 328 110 196 64 342 101 67 114 56 112 115 59 67 161 357 2085 289 290
internal_value=0 0.0617993 -0.0270903 0.0343047 -0.0369279 0.105745 0.0208427 -0.00229704 0.0192264 -0.0244213 0.0872584 -0.051062 0.0429657 0.0296468 0.089418 0.0975191 -0.0282874 0.0351609 0.071704 0.044524 0.145763 0.0304559 0.0215478 0.0713055 0.0296431 0.026134 -0.0570462 -0.0123296 -0.0326913 0.00475422 0.0385968 -0.0311084 -0.0291803 0.0136406
internal_weight=0 3376 7686 2080 6340 1296 1675 820 1346 3368 893 2972 855 1012 405 717 2974 913 255 176 403 600 411 225 803 747 2237 334 735 394 458 2646 2374 344
internal_count=11062 3376 7686 2080 6340 1296 1675 820 1346 3368 893 2972 855 1012 405 717 2974 913 255 176 403 600 411 225 803 747 2237 334 735 394 458 2646 2374 344
is_linear=0
shrinkage=0.1


Tree=3
num_leaves=35
num_cat=0
split_feature=37 37 46 34 34 2 30 2 37 46 37 46 46 37 34 2 34 30 46 46 2 30 2 37 34 2 34 37 2 34 34 34 2 46
split_gain=1696.69 282.452 270.787 104.826 97.0627 95.0163 63.4711 57.9891 67.4827 66.8228 31.5207 28.2953 25.0302 23.6151 23.5475 19.6731 19.567 18.365 17.5078 16.8985 26.9469 16.4568 16.3219 11.0018 10.7834 10.1796 10.0174 9.00854 8.97907 8.87337 8.80952 8.69426 8.54678 8.0315
threshold=10.344170414094316 3.615084093114207 21.038688291702037 4.8287956811021724 6.2989570421256671 13.500000000000002 1.0181399815572936 111.50000000000001 20.463555904689482 5.0831351245302931 26.65053904064413 5.4547805498717867 4.2016724938090002 1.9967585517996864 6.0797549818281267 111.50000000000001 8.5719096794319967 20.013034528081104 9.9395417572658218 4.5355987775229414 89.500000000000014 9.4754558777517328 32.500000000000007 14.312449096868397 6.6452491910474007 109.50000000000001 51.503267424035229 14.942877203919997 162.50000000000003 4.1641661105168852 9.867610917505683 2.9201620088954399 111.50000000000001 44.423954346616192
decision_type=10 10 10 8 10 2 10 2 10 10 10 10 10 10 10 2 10 10 8 10 2 10 2 10 10 2 10 10 2 10 10 10 2 10
left_child=1 5 3 19 12 -1 13 8 16 14 24 32 15 25 -9 -3 22 -11 -6 20 -2 -10 -5 -22 -4 31 28 -18 -20 -15 -16 -7 -8 -26
right_child=2 4 10 7 18 6 11 9 21 17 -12 -13 -14 29 30 -17 27 -19 26 -21 23 -23 -24 -25 33 -27 -28 -29 -30 -31 -32 -33 -34 -35
leaf_value=0.0058459862011580174 0.037942029140406078 -0.0045635026732642496 0.039151848398826343 0.048757462309334768 0.0091974946951733465 -0.05020723598788282 -0.0098261324449113625 -0.055050174496842158 0.07938181113481789 0.043754710276216392 0.12668889981948517 0.0045692415988380962 0.014278375720605255 -0.039512154140073766 0.045911448392069953 -0.028271092846427842 0.036739786141483551 0.091469282505215355 0.023512127740632317 0.036155563779175282 0.010815815490823758 0.11841702662485468 -0.0070491226464652161 -0.033176647287130115 0.076228014530718147 -0.061432721371244794 0.071164322918454231 0.081601345326219293 0.051773884228503944 -0.011472727788065601 0.0015647713938041739 -0.016222171252058156 -0.034459298849496188 0.11918139103172201
leaf_weight=456 101 662 52 85 296 1230 167 63 570 240 525 275 307 795 56 743 99 129 335 125 76 154 128 209 158 1170 83 95 175 135 187 84 1011 86
leaf_count=456 101 662 52 85 296 1230 167 63 570 240 525 275 307 795 56 743 99 129 335 125 76 154 128 209 158 1170 83 95 175 135 187 84 1011 86
internal_value=0 -0.0245762 0.0622693 0.0446823 0.00243255 -0.0377676 -0.0418549 0.0559801 0.0698314 0.0325651 0.111559 -0.0242733 -0.0114861 -0.0493097 -0.00202987 -0.0171342 0.0368576 0.0610385 0.029185 0.00465931 -0.00574043 0.0881393 0.015589 -0.0214549 0.0837231 -0.054434 0.0390654 0.0596162 0.0334558 -0.0354919 0.0122198 -0.0480766 -0.031001 0.092631
internal_weight=0 7924 3138 2317 2601 5323 4867 1806 1131 675 821 1453 1712 3414 306 1405 407 369 889 511 386 724 213 285 296 2484 593 194 510 930 243 1314 1178 244
internal_count=11062 7924 3138 2317 2601 5323 4867 1806 1131 675 821 1453 1712 3414 306 1405 407 369 889 511 386 724 213 285 296 2484 593 194 510 930 243 1314 1178 244
is_linear=0
shrinkage=0.1


Tree=4
num_leaves=35
num_cat=0
split_feature=16 16 16 16 41 26 16 10 26 26 16 26 16 16 60 10 16 10 16 10 56 16 16 26 16 16 10 10 10 26 10 16 10 41
split_gain=2022.72 338.092 137.819 79.7674 31.7351 19.1038 18.766 16.9781 15.6914 14.1521 16.2205 13.5037 13.3317 12.8524 9.40251 8.52471 7.30475 6.77839 6.41293 6.52539 6.3544 10.5127 8.05987 6.19072 5.98773 5.25941 4.9722 5.45864 4.69443 4.44144 4.23194 4.08102 3.90721 3.90194
threshold=20.759024473187591 6.6263507996683542 39.644153019026724 2.2638140542911098 5.244449053796683 20.192832791173608 9.5731492527704436 5.4481668644219452 1.9571251633443871 13.992977572968297 29.909882428136957 1.0013838828230812 36.065152438988896 4.3762324315251204 1.0000000180025095e-35 3.5524375145623979 70.356319530701128 3.4025039743170926 28.778924867603116 9.5980423686407921 1.0000000180025095e-35 4.7259556596355417 4.3762324315251204 13.244739713953321 13.545419857064049 17.962972689734357 3.139163822668233 8.1968870144164612 5.1376260180524183 8.0755542155387712 1.4902100657641026 4.1813626680203777 1.0442990796525999 13.436434138485179
decision_type=10 10 10 8 10 10 10 8 10 10 10 10 10 8 2 10 10 8 10 8 2 10 10 10 10 10 10 10 10 10 10 10 8 8
left_child=1 3 9 15 6 23 11 -8 13 10 18 -3 -11 32 17 -1 -7 -12 19 -2 21 30 -22 33 26 -26 -6 -28 31 -29 -15 -10 -5 -4
right_child=2 4 5 8 24 16 7 -9 28 12 14 -13 -14 20 -16 -17 -18 -19 -20 -21 22 -23 -24 -25 25 -27 27 29 -30 -31 -32 -33 -34 -35
leaf_value=-0.056234465769244235 0.069466612652382437 -0.020518269771514202 0.074945978380384901 -0.022285860824646266 0.00030917410845868296 0.11035046688981416 -0.0099921864762891402 0.016720760931254915 -0.029767591633924076 0.085135864853833079 0.031783353677836433 0.0078319365555246361 0.030058377628835536 -0.019327642888317474 0.023860687813571386 -0.027174137222658226 0.14543260256588414 0.071994519864250844 0.003105406246402047 0.033723548714733501 -0.060292193608484784 -0.033423316552111323 -0.026034657919419703 0.058198151986856586 0.045061228537875024 0.011755052959357484 0.035439198135221277 -0.0067279967490765386 0.0019489093404716825 0.023916802703190531 0.0091351846291217956 -0.010175339766767429 -0.0398029294422656 0.10267801183621238
leaf_weight=1547 65 532 102 155 122 239 340 777 183 285 54 243 57 1168 59 117 160 431 52 284 115 717 186 56 193 66 189 79 151 111 53 260 1348 566
leaf_count=1547 65 532 102 155 122 239 340 777 183 285 54 243 57 1168 59 117 160 431 52 284 115 717 186 56 193 66 189 79 151 111 53 260 1348 566
internal_value=0 -0.0224873 0.0810483 -0.0356243 0.00724111 0.106694 0.00029776 0.00858471 -0.0284463 0.0584748 0.0518036 -0.0116332 0.0762975 -0.0308454 0.0631383 -0.0542437 0.125399 0.0677403 0.0360722 0.0409159 -0.0259683 -0.0237949 -0.0395889 0.0959103 0.0244573 0.0368057 0.0178924 0.0235056 -0.0132542 0.0112685 -0.0180728 -0.0184145 -0.0380444 0.0987975
internal_weight=0 8652 2410 6000 2652 1123 1892 1117 4336 1287 945 775 342 3742 544 1664 399 485 401 349 2239 1938 301 724 760 259 501 379 594 190 1221 443 1503 668
internal_count=11062 8652 2410 6000 2652 1123 1892 1117 4336 1287 945 775 342 3742 544 1664 399 485 401 349 2239 1938 301 724 760 259 501 379 594 190 1221 443 1503 668
is_linear=0
shrinkage=0.1


Tree=5
num_leaves=35
num_cat=0
split_feature=40 48 47 47 26 48 26 40 40 40 40 40 26 61 26 26 26 40 26 26 26 26 26 40 40 40 40 26 26 26 40 26 26 40
split_gain=837.811 155.33 137.759 106.077 105.174 99.0739 72.2309 28.0472 20.6721 19.0725 16.8793 14.1523 11.4582 11.3612 9.05072 8.8005 6.77266 6.54107 5.78124 6.76889 5.65141 4.84967 4.27336 3.90008 5.01362 2.34212 2.95749 2.27327 2.10377 2.08084 2.04284 2.01449 1.9412 1.93484
threshold=7.8089385018483366 1.0000000180025095e-35 1.0000000180025095e-35 1.0000000180025095e-35 21.729530439260984 1.0000000180025095e-35 6.9160407753294342 20.431845675297218 16.243226136172403 1.7694164045589236 3.8659797752088818 2.6692571309484401 2.1435340297736967 1.0000000180025095e-35 14.830278615473697 6.800492684164694 3.9007301096501563 71.705703155183002 4.9438182968535838 13.244739713953321 13.461681763116486 1.2184123432036007 5.3574903873544129 5.9998497339828054 3.1052372455735631 30.658935775480121 25.556545531036949 13.992977572968297 26.403743735650352 1.9571251633443871 23.076096992215241 69.247984703456197 30.546010983181379 1.5694358461224605
decision_type=10 2 2 2 10 2 10 10 10 8 10 10 8 2 10 8 10 10 10 10 10 10 10 10 10 10 10 10 8 10 10 10 10 10
left_child=3 2 4 5 7 6 9 12 -6 29 -8 13 -2 -11 -12 -15 30 31 25 -20 -3 23 -7 24 -13 26 -9 -14 -18 33 -4 -10 -22 -1
right_child=1 20 16 -5 8 22 10 18 17 11 14 21 27 15 -16 -17 28 -19 19 -21 32 -23 -24 -25 -26 -27 -28 -29 -30 -31 -32 -33 -34 -35
leaf_value=-0.024986705027306079 0.0084210175099341499 -0.023936839301380221 -0.033702696966709661 -0.047914098680222658 0.068860129919343344 -0.043113841028598741 0.011572483373843385 0.064120206517445585 0.10158713566483893 -0.0079057460090475942 0.034752196624529025 0.013327057936742479 0.04384174628580207 -0.0026677472203468478 0.078753758624581532 -0.038307239067606656 0.017772287787853652 0.14824736267138197 0.10196030574729881 0.061610275671670316 0.017625593221081155 0.011960741676258803 -0.015381985926416828 0.01625642686964596 -0.012697783999087562 0.070136169729415665 0.03199117925407282 0.065924990752145002 -0.0062685352629395551 -0.013098133536386154 -0.0066707970719013746 0.12995086223723329 -0.0086289340989631532 -0.041947399969617633
leaf_weight=418 92 194 58 840 116 862 146 74 245 4723 106 94 463 101 95 221 114 95 128 92 53 433 64 88 313 239 64 66 51 121 55 95 54 89
leaf_count=418 92 194 58 840 116 862 146 74 245 4723 106 94 463 101 95 221 114 95 128 92 53 433 64 88 313 239 64 66 51 121 55 95 54 89
internal_value=0 0.0530717 0.0629229 -0.0141946 0.0731907 -0.0105806 -0.00647662 0.0565458 0.109479 -0.00882028 0.0378005 -0.00706934 0.0413126 -0.00915626 0.0564013 -0.0272562 -0.00249791 0.119765 0.0721057 0.0861425 -0.0138828 0.004269 -0.041253 -0.00249084 -0.0066336 0.063299 0.0502175 0.0469532 0.0103622 -0.0253609 -0.0210584 0.11058 0.00450167 -0.0281933
internal_weight=0 2348 2047 8714 1769 7874 6948 1218 551 6601 347 5973 621 5045 201 322 278 435 597 220 301 928 926 495 407 377 138 529 165 628 113 340 107 507
internal_count=11062 2348 2047 8714 1769 7874 6948 1218 551 6601 347 5973 621 5045 201 322 278 435 597 220 301 928 926 495 407 377 138 529 165 628 113 340 107 507
is_linear=0
shrinkage=0.1


Tree=6
num_leaves=35
num_cat=0
split_feature=38 38 36 4 38 36 38 36 36 20 38 38 4 36 4 36 20 8 20 8 20 10 8 20 4 20 36 8 8 38 8 38 38 36
split_gain=1021.67 176.595 104.427 53.9639 41.2992 37.2868 32.1544 27.8385 22.3757 21.0621 17.8605 16.3717 11.5416 10.5716 7.21293 8.01083 7.0071 6.98893 6.89287 9.24382 12.3423 8.21206 8.54359 7.39881 7.35408 7.19901 6.83573 6.44015 6.38673 6.99129 6.37982 6.27591 6.25213 6.2508
threshold=10.336001666699881 3.5673876468006394 18.716675006940815 1.0000000180025095e-35 1.0756599251473538 7.8575962411047593 45.794286967791372 4.7516520962822835 9.6138348820638431 3.2279718629106497 2.0044511700355785 18.20235598945759 1.0000000180025095e-35 52.230228818836885 1.0000000180025095e-35 3.684026056548841 9.9768794504469884 6.6199437358864044 34.159276064661448 26.831649560252476 3.9700301950495098 3.0580758838021063 20.268501828399501 5.0155528749034906 1.0000000180025095e-35 50.416004574564944 14.957914940693231 0.40229428656975924 42.778005374915814 33.09537514094206 7.5029262169042283 41.466452171594163 5.6909964172914007 30.605606920169567
decision_type=10 10 10 2 8 10 10 8 10 8 8 10 2 10 2 10 10 10 10 10 8 8 10 8 2 10 8 10 10 10 10 10 10 10
left_child=1 4 6 30 -1 14 7 12 10 -8 -6 -5 -2 16 27 17 -7 -16 19 21 -21 26 23 -23 -24 -20 -9 -3 29 -22 -4 -32 -19 -13
right_child=2 5 3 11 8 13 9 18 -10 -11 -12 33 -14 -15 15 -17 -18 32 25 20 28 22 24 -25 -26 -27 -28 -29 -30 -31 31 -33 -34 -35
leaf_value=-0.050518969602458087 -0.021438395711364317 0.025042075813763727 0.025426290948213876 0.052729551087099091 -0.034164823412299809 0.013800198748271833 0.0038903424795716998 0.023679928894138391 0.015089252062497891 0.068600877087201445 -0.021338245613465586 0.091839931926159107 0.023786090159611334 0.072288379540497605 0.0069802849763640901 0.026783588861531399 0.042424487157591756 -0.041580675182453661 0.083869570917808098 0.0058610692440021423 0.052458246163423032 0.00041238937030235929 -0.014414852277607949 0.034395224588417039 0.027032786711222598 0.03944249209840741 0.071755688689366173 -0.0089716856778142492 0.02871589892281172 0.093955484195612379 0.074277312051651348 0.043623822717432009 -0.0041135842833876059 0.13000363031945503
leaf_weight=716 119 56 66 51 1702 232 57 54 135 450 3080 104 102 52 571 138 137 56 62 59 183 72 88 584 78 110 76 1025 75 61 175 138 185 213
leaf_count=716 119 56 66 51 1702 232 57 54 135 450 3080 104 102 52 571 138 137 56 62 59 183 72 88 584 78 110 76 1025 75 61 175 138 185 213
internal_value=0 -0.0183368 0.0501587 0.082509 -0.0280833 0.00406089 0.0392257 0.032608 -0.0247875 0.0613914 -0.025922 0.109852 -0.000526539 0.0310338 -0.00156778 0.00478128 0.0246841 0.000957141 0.0374747 0.0348769 0.0482247 0.0294422 0.0255743 0.0306843 0.0051947 0.0566201 0.0527703 -0.00714521 0.0559324 0.0638477 0.0553056 0.0613048 -0.0132238 0.118461
internal_weight=0 8085 2977 747 5633 2452 2230 1723 4917 507 4782 368 221 421 2031 950 369 812 1502 1330 378 952 822 656 166 172 130 1081 319 244 379 313 241 317
internal_count=11062 8085 2977 747 5633 2452 2230 1723 4917 507 4782 368 221 421 2031 950 369 812 1502 1330 378 952 822 656 166 172 130 1081 319 244 379 313 241 317
is_linear=0
shrinkage=0.1


Tree=7
num_leaves=35
num_cat=0
split_feature=38 38 38 4 10 38 10 23 10 10 38 38 38 23 23 38 10 23 58 10 38 4 10 10 10 10 38 23 38 10 10 23 23 10
split_gain=831.926 121.028 73.8018 47.9576 34.2259 32.9273 26.3219 17.4898 16.0017 12.3713 11.5835 11.0816 9.72064 8.32206 7.91513 7.8231 8.91387 7.77893 9.48539 7.58144 7.44788 7.07928 6.58981 6.22253 5.96907 5.94133 5.78667 10.2524 8.488 5.98092 9.89292 5.40114 5.17113 7.30641
threshold=6.7666723076534669 19.325929652834393 3.4575984047758732 1.0000000180025095e-35 10.788475964160929 1.0756599251473538 5.3072208993323704 2.0479313668231374 5.7247783133461043 20.334959482435593 2.0044511700355785 64.596664352583545 38.615311690633 35.170558541995995 2.0093781691603403 2.4480301435102501 4.2865612615360202 2.9034526725781764 1.0000000180025095e-35 171.4882465682476 13.30341393249371 1.0000000180025095e-35 8.1968870144164612 -0.14005121170317389 3.0018219565959998 2.9320053448345251 10.336001666699881 11.065742040194502 10.944865638055692 11.08462455729425 6.2302746868357657 4.4265772771190033 13.529031085571409 0.16775548293594403
decision_type=10 10 10 2 10 8 8 10 10 10 8 10 10 10 8 8 10 10 2 8 10 2 8 10 10 10 10 10 10 10 10 10 10 10
left_child=2 9 5 6 12 -1 13 23 21 26 19 -6 -5 -3 -12 -16 17 18 -17 -7 -11 -9 25 -4 31 -14 27 -2 -28 30 32 -23 33 -30
right_child=1 3 7 4 11 10 -8 8 -10 20 14 -13 22 -15 15 16 -18 -19 -20 -21 -22 24 -24 -25 -26 -27 28 -29 29 -31 -32 -33 -34 -35
leaf_value=-0.04548815142278953 0.013640516010447896 0.026209671243148693 0.0072379145712492257 0.040966731808722429 0.080550236272070586 -0.020872954290432358 0.046807610828553101 -0.018963371699590052 0.013622318063643066 0.023607968190800022 -0.0077704216316989349 0.12034595344066622 0.056162629209991016 -0.017089244520532027 -0.039983251444177664 -0.016731457768113051 0.0061967903361297575 -0.033721374086534632 -0.056420528057903534 -0.034493290020721372 0.055371318726043263 0.0041936284661157211 0.052974292744950552 0.041892220977660238 0.017594718386674615 0.10731296101851123 0.049927609456797882 -0.024585174446931493 0.03917388729530679 -0.0088742328212441258 0.052926609065210406 -0.018523512066719285 0.0067338212531316902 0.0066300252685323365
leaf_weight=716 716 82 100 289 277 707 803 561 339 175 544 122 53 90 202 1772 127 392 60 1039 136 189 161 108 110 67 94 75 166 72 83 229 287 119
leaf_count=716 716 82 100 289 277 707 803 561 339 175 544 122 53 90 202 1772 127 392 60 1039 136 189 161 108 110 67 94 75 166 72 83 229 287 119
internal_value=0 0.0375116 -0.0199815 0.0550949 0.0708893 -0.0254732 0.0392285 -0.00130875 -0.00526945 0.019678 -0.0224878 0.0935256 0.0546371 0.0036487 -0.0187788 -0.0211126 -0.0194423 -0.0209128 -0.0181214 -0.0290233 0.0378944 -0.0111716 0.0681155 0.0255713 -0.00283253 0.0866424 0.0160997 0.00993689 0.0219796 0.0181756 0.0211759 -0.0082952 0.0163166 0.025796
internal_weight=0 3867 7195 1944 969 5559 975 1636 1428 1923 4843 399 570 172 3097 2553 2351 2224 1832 1746 311 1089 281 208 528 120 1612 791 821 727 655 418 572 285
internal_count=11062 3867 7195 1944 969 5559 975 1636 1428 1923 4843 399 570 172 3097 2553 2351 2224 1832 1746 311 1089 281 208 528 120 1612 791 821 727 655 418 572 285
is_linear=0
shrinkage=0.1


Tree=8
num_leaves=35
num_cat=0
split_feature=37 37 31 32 37 22 51 31 51 31 37 32 37 37 22 22 32 31 22 37 22 22 31 37 37 37 37 37 31 22 31 22 51 37
split_gain=782.847 146.094 66.6525 41.9063 30.5472 21.9771 20.8914 16.437 17.2824 14.3444 10.0065 9.61479 9.42793 8.88115 8.81697 7.8951 12.8475 6.6302 6.62878 6.57996 7.15501 6.50245 6.4986 6.10032 5.76813 8.92297 5.44008 5.32782 4.84851 4.6984 4.44381 3.92557 6.31822 3.90709
threshold=11.176165590395371 3.615084093114207 16.597832951378155 63.056303772902758 1.8011768784043589 2.3301194700908563 1.0000000180025095e-35 2.1397699856089551 1.0000000180025095e-35 5.7153473981493512 5.2594404996780151 22.993246079209218 5.1116960808805683 16.498268481186528 15.62677807172305 6.1795238123980889 18.045233562877755 11.5902538764089 1.9529171383936526 1.0084930697880672 1.0000118898437991 10.458058604431868 55.810361988896098 4.0716685756161182 7.7217099386025412 8.1587328861804576 20.463555904689482 26.65053904064413 21.902678864229795 3.6374392699746232 3.4525825589427703 6.0358492521542368 1.0000000180025095e-35 9.7846929812731158
decision_type=10 10 10 10 8 10 2 8 2 10 10 10 10 10 10 10 10 10 10 10 10 10 10 10 10 10 10 10 10 10 10 10 2 10
left_child=1 4 3 7 19 12 11 -2 13 10 -7 -4 23 14 -9 -15 -17 18 -6 -1 -21 24 -8 -3 31 -26 -18 -10 -13 -27 -22 32 -12 -23
right_child=2 5 6 -5 17 9 22 8 27 -11 21 28 -14 15 -16 16 26 -19 -20 20 30 33 -24 -25 25 29 -28 -29 -30 -31 -32 -33 -34 -35
leaf_value=-0.045512912122842281 -0.0060371201235934029 0.031828279217312995 0.042126369370174978 0.067626602116154191 -0.01471687890890528 -0.013696811679241267 0.082248593474988169 0.02296617150438849 0.041560757104686444 0.01440485770247675 -0.00022335031801568614 0.03872983540079139 0.043697857804505566 -0.0034740108964186099 -0.010156075498002156 0.070072912264575238 0.0096690317760382231 0.0074666506397795488 -0.024411213824379309 0.0034772579708152404 -0.033649748290546781 -0.031328415576453238 0.13716765599394287 -0.0052452710896937387 0.045275507867336279 -0.018268925033419602 0.033462832141426688 0.071327239565425013 0.074122097500137929 0.012624615550133562 -0.0091487145051360134 -0.0097776729899569613 0.036602912257824631 -0.002425578042815547
leaf_weight=434 123 73 201 334 1388 742 79 330 169 496 277 55 161 58 104 90 113 91 1480 56 1794 85 51 105 71 59 778 115 378 239 80 299 53 101
leaf_count=434 123 73 201 334 1388 742 79 330 169 496 277 55 161 58 104 90 113 91 1480 56 1794 85 51 105 71 59 778 115 378 239 80 299 53 101
internal_value=0 -0.0160235 0.0439277 0.0350548 -0.0257009 0.00264142 0.069403 0.0291696 0.0316404 -0.000708463 -0.00461692 0.0613511 0.0263711 0.0271829 0.0150138 0.0322082 0.034322 -0.0188964 -0.0197398 -0.0341833 -0.031569 0.00109358 0.106402 0.0102346 0.00430294 0.0141744 0.0304878 0.0542337 0.069924 0.00638699 -0.0326201 -0.0015279 0.00596764 -0.0159215
internal_weight=0 8084 2978 2214 5323 2761 764 1880 1757 2422 1926 634 339 1473 434 1039 981 2959 2868 2364 1930 1184 130 178 998 369 891 284 433 298 1874 629 330 186
internal_count=11062 8084 2978 2214 5323 2761 764 1880 1757 2422 1926 634 339 1473 434 1039 981 2959 2868 2364 1930 1184 130 178 998 369 891 284 433 298 1874 629 330 186
is_linear=0
shrinkage=0.1


Tree=9
num_leaves=35
num_cat=0
split_feature=14 14 14 14 24 35 20 35 34 14 14 34 35 14 24 20 14 35 24 14 14 35 20 35 35 35 24 24 14 20 35 24 34 34
split_gain=890.928 166.33 57.1435 44.6938 27.0544 19.3534 14.2738 11.0795 10.9729 10.0497 17.7006 8.80966 7.849 6.40064 7.98743 5.00055 7.14849 4.9991 6.99538 4.48864 4.38222 4.37308 20.9511 5.75275 4.98843 4.58645 4.09277 5.82289 4.06747 3.97294 3.67231 3.4829 3.36451 3.29771
threshold=23.150013045026423 6.6458411751844757 47.301890574864245 3.9515119167412909 3.9975799855664937 7.2951636328707545 158.58935194465826 2.0370530148961707 4.1641661105168852 15.509361314994793 16.746914344436629 92.2593636409227 7.4368870409737484 9.429321513748901 4.80311768838975 9.060782001580062 8.7423615494779039 7.2951636328707545 1.5946052134923525 7.2617834237076204 8.6230026958542911 15.055970015173436 2.9999010246015296 27.686217185923478 6.8151705024646736 31.873871131476466 1.190005939453209 2.1999039825235509 33.839957009630275 2.0204920351960198 9.4152867451901425 1.0250306126510531 7.0894483617854727 1.1744180954615391
decision_type=10 10 10 8 10 8 10 8 8 10 10 10 8 10 10 8 10 8 10 10 10 8 10 8 10 8 8 8 8 10 10 10 8 8
left_child=1 3 8 5 9 29 12 -6 28 15 -11 21 -4 20 -15 19 -17 -12 -19 -3 30 22 -10 -23 -24 -25 -18 -28 -2 -1 32 -7 -9 -5
right_child=2 4 6 33 7 31 -8 13 11 10 17 -13 -14 14 -16 16 26 18 -20 -21 -22 23 24 25 -26 -27 27 -29 -30 -31 -32 -33 -34 -35
leaf_value=-0.024892720448549833 -0.00096794537415629948 0.0068397993299489221 0.045217599530005828 -0.027163674753662465 -0.013480768620681306 -0.040985227885209162 0.027276244425716308 -0.00989760026806988 0.072695920010516932 0.050915826468851913 0.021915439116295246 0.01002949242080961 0.08175772537774248 0.050885122471109281 0.018431775780014467 -0.01540168036898976 -0.015451772182591653 0.004213554599215236 -0.036487923510482211 -0.020423959128253358 -0.011226131717081776 0.068188132532394669 -0.011375986781592171 0.017761068954935361 0.025598321843304135 0.049108054188679445 0.033764448707288466 0.002590357776126275 0.033675194892381868 -0.01066916702509722 0.032398583822330275 -0.031857170170819474 0.017369527335977183 -0.014041165154568888
leaf_weight=620 73 69 77 208 127 1362 62 80 88 80 58 67 787 81 937 278 73 110 65 418 107 175 57 55 92 659 77 241 60 297 66 713 97 2646
leaf_count=620 73 69 77 208 127 1362 62 80 88 80 58 67 787 81 937 278 73 110 65 418 107 175 57 55 92 659 77 241 60 297 66 713 97 2646
internal_value=0 -0.0142226 0.0562176 -0.0240024 0.00507131 -0.0325421 0.0753272 0.0145286 0.0427327 -0.00456333 0.0112589 0.0457724 0.078669 0.0171527 0.0211559 -0.00886542 -0.00322768 -0.00283138 -0.0112643 -0.0165429 0.00542799 0.0478669 0.0348525 0.0512076 0.0115084 0.0467778 0.00547936 0.0103838 0.0150586 -0.0203358 0.0128088 -0.0378992 0.00508584 -0.0150251
internal_weight=0 8810 2252 5846 2964 2992 926 1495 1326 1469 313 1193 864 1368 1018 1156 669 233 175 487 350 1126 237 889 149 714 391 318 133 917 243 2075 177 2854
internal_count=11062 8810 2252 5846 2964 2992 926 1495 1326 1469 313 1193 864 1368 1018 1156 669 233 175 487 350 1126 237 889 149 714 391 318 133 917 243 2075 177 2854
is_linear=0
shrinkage=0.1


Tree=10
num_leaves=35
num_cat=0
split_feature=42 8 42 42 49 36 8 36 42 8 42 42 8 42 8 8 42 36 36 8 8 8 8 42 49 42 36 42 8 36 8 8 36 42
split_gain=579.641 99.8538 72.8344 64.4067 31.845 18.6382 17.8464 14.0802 11.2112 10.8409 24.7745 9.78031 9.76387 8.9701 7.92317 7.09305 6.83749 6.34674 5.76736 5.69368 5.40008 5.20333 7.8019 5.10151 4.80329 4.64654 4.4114 4.20896 4.14237 4.11375 3.86503 6.95761 3.63782 8.50197
threshold=8.2999472253171138 9.8902264474080539 3.3084226652763307 26.483171294819176 1.0000000180025095e-35 9.1624038833725425 4.0359896942604747 8.7123722521402645 16.042844803932436 4.6479811601710059 42.824082909146064 1.6610347811175308 4.2589629688798336 5.9358508835594419 3.7318963087817814 27.401032620303656 17.164188874416713 57.435650865444586 21.119137666744056 -0.062825316363516168 63.745961323187828 2.4892988760612034 3.7318963087817814 7.9355745616810784 1.0000000180025095e-35 39.01419156120302 11.685438567476888 14.416578409782277 5.9375988742404244 3.9166945476535284 13.849860260852468 26.059259525410326 21.78265846178715 78.398060743576124
decision_type=10 10 8 10 2 10 10 10 10 8 10 10 10 10 10 10 10 10 8 10 10 8 10 10 2 10 10 10 8 10 10 10 10 10
left_child=2 4 11 8 5 9 18 21 15 12 16 -1 14 30 19 -3 28 25 -4 -2 -17 -6 -23 -15 -10 27 -13 -7 -11 -21 -8 -32 33 -5
right_child=1 3 6 32 7 17 13 -9 24 10 -12 26 -14 23 -16 20 -18 -19 -20 29 -22 22 -24 -25 -26 -27 -28 -29 -30 -31 31 -33 -34 -35
leaf_value=-0.031869399193610877 -0.02446119714662567 0.025375513079029938 -0.0014972267623547079 0.052099225569312291 0.016813172823084251 0.015503071510853866 0.0012462705032629876 0.092322488280910039 0.03429431844365078 0.013206995852095517 0.059630971717288588 -0.022333960427601468 -0.043709166288109766 0.019824173819861655 0.031128918728791179 -0.013838191542176987 0.019429724691806108 0.054346488588489596 -0.013967148490634729 -0.0025792928837684668 0.024330425014098489 0.072446467824788252 0.023356638801594578 -0.0090863044908572298 0.064314846583790539 0.0014940356791374228 0.0065605116475905695 0.043075711826399049 -0.014817882147778211 0.025572977645386907 -0.038042208453556769 0.0025798090183711117 0.073082785195324546 0.080925105011241671
leaf_weight=1717 108 322 474 508 102 117 528 51 376 73 98 2048 53 374 69 103 173 77 1715 491 54 63 72 71 66 81 53 112 171 55 75 91 376 145
leaf_count=1717 108 322 474 508 102 117 528 51 376 73 98 2048 53 374 69 103 173 77 1715 491 54 63 72 71 66 81 53 112 171 55 75 91 376 145
internal_value=0 0.0310352 -0.0168172 0.047056 0.0150973 0.00978139 -0.00599563 0.0456495 0.0277081 0.00398394 0.0151888 -0.0262379 -0.00348211 0.00414913 -0.000364805 0.016944 0.00439298 0.0289418 -0.0112727 -0.00381451 -0.000500088 0.0345775 0.0473421 0.0151815 0.0391804 0.0221712 -0.0215968 0.029371 -0.00637482 0.000380805 -0.00295986 -0.016123 0.0642422 0.0588409
internal_weight=0 3916 7146 1950 1966 1678 3328 288 921 1291 515 3818 776 1139 723 479 417 387 2189 654 157 237 135 445 442 310 2101 229 244 546 694 166 1029 653
internal_count=11062 3916 7146 1950 1966 1678 3328 288 921 1291 515 3818 776 1139 723 479 417 387 2189 654 157 237 135 445 442 310 2101 229 244 546 694 166 1029 653
is_linear=0
shrinkage=0.1


Tree=11
num_leaves=35
num_cat=0
split_feature=39 2 39 2 39 53 2 2 34 2 34 2 2 34 39 2 2 2 2 2 34 2 2 2 2 39 2 2 39 34 2 53 2 2
split_gain=377.464 93.0015 75.7535 28.9481 20.7197 16.9451 12.7032 12.1835 12.0074 11.9655 11.6798 10.6237 10.5226 9.96441 7.24867 9.57848 11.3034 7.00774 6.7654 6.36362 7.07796 5.83234 5.70568 6.24418 6.6051 5.51072 7.52579 6.25925 5.33117 5.29538 5.26299 5.21544 4.59654 4.4707
threshold=8.2984986057894581 33.500000000000007 2.7194798032498189 90.500000000000014 29.447014645584048 1.0000000180025095e-35 13.500000000000002 197.50000000000003 1.1744180954615391 2.5000000000000004 19.756060386306029 114.50000000000001 165.50000000000003 1.5441120854611967 3.9070488937294807 185.50000000000003 132.50000000000003 111.50000000000001 118.50000000000001 222.50000000000003 5.8064135234095131 94.500000000000014 16.500000000000004 18.500000000000004 30.500000000000004 10.807531247034234 138.50000000000003 149.50000000000003 10.807531247034234 3.3703756784625991 132.50000000000003 1.0000000180025095e-35 193.50000000000003 231.50000000000003
decision_type=10 2 10 2 10 2 2 2 10 2 10 2 2 10 10 2 2 2 2 2 10 2 2 2 2 10 2 2 10 10 2 2 2 2
left_child=1 6 8 28 7 33 9 10 11 -1 12 -3 25 17 18 16 -16 -10 21 20 -17 -4 -8 -24 -25 26 -5 30 -2 -20 -27 -30 -13 -6
right_child=3 2 14 4 5 -7 22 -9 13 -11 -12 32 -14 -15 15 19 -18 -19 29 -21 -22 -23 23 24 -26 27 -28 -29 31 -31 -32 -33 -34 -35
leaf_value=-0.0097072962255162348 0.024634210885398921 -0.02140401639509075 -0.0055101072575182543 0.026925596354274259 0.033535571069207175 0.070240287991490832 -0.019534295475819991 0.030920123677220076 0.01577280710935015 0.031439452102706163 -0.0078459031095529808 -0.038370490038663857 -0.001614906595584572 -0.021392070582097709 0.0073543927529781108 0.0335489403235643 -0.014829865599532375 -0.011267890607724016 -0.0065789218644933638 -0.00047597626750454469 0.0036282404644701347 0.027985249556325101 0.031054212938588444 -0.001325587902987457 0.025572675835798711 0.033712412402321132 -0.015675041072772466 0.057617593584567472 0.056860187501393544 -0.026304076155305868 0.0024271116627356676 0.029980096123227391 -0.025904364213799415 0.0056291338243980469
leaf_weight=82 87 1600 143 102 697 131 81 462 126 459 241 815 204 1122 507 210 415 371 370 189 127 78 98 457 111 185 66 76 481 215 76 98 516 64
leaf_count=82 87 1600 143 102 697 131 81 462 126 459 241 815 204 1122 507 210 415 371 370 189 127 78 98 457 111 185 66 76 481 215 76 98 516 64
internal_value=0 -0.0110605 -0.0157243 0.0306041 0.0252365 0.0371668 0.0135562 0.0176369 -0.0231469 0.0251837 0.0111001 -0.0269741 0.0175461 -0.016181 -0.000730098 0.0034997 -0.00264664 -0.004359 -0.00831384 0.0142272 0.0224047 0.00652826 0.00506815 0.00813451 0.00403768 0.0252501 0.0102082 0.0325925 0.0489767 -0.0139256 0.0247336 0.0524885 -0.0336068 0.03122
internal_weight=0 8092 6804 2970 2304 892 1288 1412 4550 541 950 2931 709 1619 2254 1448 922 497 806 526 337 221 747 666 568 505 168 337 666 585 261 579 1331 761
internal_count=11062 8092 6804 2970 2304 892 1288 1412 4550 541 950 2931 709 1619 2254 1448 922 497 806 526 337 221 747 666 568 505 168 337 666 585 261 579 1331 761
is_linear=0
shrinkage=0.1


Tree=12
num_leaves=35
num_cat=0
split_feature=27 8 27 27 46 4 8 4 46 46 8 27 46 8 8 46 8 46 6 27 8 27 27 27 27 27 8 8 46 27 46 46 46 8
split_gain=338.291 95.8624 41.1557 36.9308 33.7595 26.6695 23.4107 13.8533 26.5463 11.7913 14.3519 11.4379 11.2481 9.85368 8.12012 8.04597 7.80187 7.31724 7.26235 6.85111 6.32652 6.0387 5.37841 4.96617 5.54119 5.24492 5.61163 5.6725 4.86285 4.54453 4.36627 4.21506 3.82122 3.82081
threshold=7.7609752423219485 4.6479811601710059 21.947338686988022 1.099596362997417 5.0831351245302931 1.0000000180025095e-35 9.0156649484565428 1.0000000180025095e-35 4.5730782075270886 22.682467588140916 100.53454235672605 5.0308806005943278 27.617739226928901 32.800576325199167 10.135273464498759 46.496541042004814 5.6413061093095775 26.552360724300602 1.0000000180025095e-35 34.400482447196445 7.0558871212829617 89.180035140930656 11.365784287698991 1.9999000200883266 1.1373456467194463 2.0337068491617276 4.8379323414143576 6.6199437358864044 1.9366448757971428 3.1719954064122478 10.81246928913729 1.6495818493440011 2.8112975344199205 123.89087775124419
decision_type=10 8 10 8 10 2 10 2 10 8 8 10 10 10 8 10 8 10 2 10 8 10 10 8 10 8 10 10 10 10 10 8 8 10
left_child=3 4 13 28 -2 9 7 11 23 -4 21 18 14 16 -7 -6 -3 32 -5 -16 -18 -11 -15 24 -9 -25 31 -28 -1 -10 -13 -27 -8 -12
right_child=1 2 5 6 15 12 17 8 29 10 33 30 -14 22 19 -17 20 -19 -20 -21 -22 -23 -24 25 -26 26 27 -29 -30 -31 -32 -33 -34 -35
leaf_value=-0.026039116668012188 -0.011380135346159772 0.044959846170158274 0.0017944762257393451 -0.018767217312471638 0.020720316961355924 0.021461799758176012 -0.019733872526745883 0.010129774785409235 0.040747809169434872 0.042164064799477395 -0.0098545583797099642 0.0058970269294721742 0.082404186181006367 0.019225407088222572 0.040485596514384575 0.06345954480205189 -0.0099651718231779287 0.036433757952861974 0.010847865271478378 0.069372776648015139 0.017944055108034148 0.075533265524820703 0.053098811753067271 0.024462831033426419 -0.019397760318330945 0.01826903589747169 0.026136411346419891 -0.0089522995193884979 -0.0019376140528196549 0.013427399643215127 -0.022942868896597437 -0.010125845454476451 0.006077563846603227 0.026572245203635908
leaf_weight=1555 707 94 97 2334 222 72 59 70 110 330 58 312 215 76 147 54 90 74 84 253 694 71 144 54 546 52 96 84 89 142 60 1188 777 52
leaf_count=1555 707 94 97 2334 222 72 59 70 110 330 58 312 215 76 147 54 90 74 84 253 694 71 144 54 546 52 96 84 89 142 60 1188 777 52
internal_value=0 0.0264992 0.0372878 -0.0114629 0.0002022 0.0493651 -0.00783972 -0.0104603 -0.00478058 0.0338296 0.0398647 -0.0152177 0.0629073 0.0229479 0.0535619 0.0296748 0.0180946 0.00692486 -0.0177262 0.0591371 0.0147144 0.0485893 0.0418132 -0.00848636 -0.0160095 -0.00531621 -0.00649784 0.00988336 -0.0247403 0.0256921 0.0010991 -0.00889387 0.00419189 0.00761368
internal_weight=0 3376 2393 7686 983 1295 6042 5132 2342 608 511 2790 687 1098 472 276 878 910 2418 400 784 401 220 2090 616 1474 1420 180 1644 252 372 1240 836 110
internal_count=11062 3376 2393 7686 983 1295 6042 5132 2342 608 511 2790 687 1098 472 276 878 910 2418 400 784 401 220 2090 616 1474 1420 180 1644 252 372 1240 836 110
is_linear=0
shrinkage=0.1


Tree=13
num_leaves=35
num_cat=0
split_feature=15 15 15 15 54 15 0 0 0 0 0 22 46 0 22 46 0 0 0 0 55 22 0 22 46 0 0 0 46 0 22 46 46 0
split_gain=530.562 79.9269 52.9642 28.0242 25.3819 38.6526 14.561 17.3155 31.574 28.7886 27.0081 14.205 14.0759 13.3162 16.828 11.9525 11.0768 17.8553 10.2577 7.38274 6.96336 6.65314 6.36758 6.36222 6.06639 5.76792 5.88599 6.09195 5.57646 6.09457 5.53348 9.52658 5.23648 5.03653
threshold=22.844533369331728 4.723312732516054 38.940927313156216 10.601822471906866 1.0000000180025095e-35 4.723312732516054 14.500000000000002 86.500000000000014 72.500000000000014 105.50000000000001 119.50000000000001 28.55005948358404 16.013128604845132 74.000000000000014 19.547548261793008 1.8577751094896131 51.500000000000007 50.500000000000007 69.500000000000014 69.500000000000014 1.0000000180025095e-35 47.574768793498144 86.500000000000014 1.9980937581846148 18.81804270764059 111.50000000000001 100.50000000000001 84.500000000000014 8.2953841695852955 85.500000000000014 3.337805920770339 52.893075226232362 45.163148656343843 31.500000000000004
decision_type=10 8 10 10 2 10 2 2 2 2 2 10 8 2 10 10 2 2 2 2 2 10 2 10 10 2 2 2 8 2 10 8 8 2
left_child=1 15 16 4 5 -3 -6 8 -8 -9 -11 19 22 21 30 -1 17 -2 -13 20 -5 -4 -7 -14 28 26 27 -21 -18 -30 -15 -32 -19 -17
right_child=2 3 13 11 6 12 7 9 -10 10 -12 18 23 14 -16 33 24 32 -20 25 -22 -23 -24 -25 -26 -27 -28 -29 29 -31 31 -33 -34 -35
leaf_value=-0.024697755903538413 0.021840412160934936 -0.040533475664453096 0.048271242764758623 0.015955782602305704 -0.024801208531217919 0.0059591365662366455 0.0097038419175004293 -0.051188670602743513 0.071111382040952409 0.049554537431172593 -0.029011750558100929 0.0079845205299825094 -0.0058160113097500141 0.07374983612034057 0.074788938428906812 0.0061656626404333892 -0.0075471953766649228 0.045954399536010521 -0.03642476217886597 -0.0044090582607209348 0.048969430335470153 0.014346501104799764 -0.013625521038794462 -0.019944006781625293 -0.0046613711526151749 0.01813509314859341 -0.013653811581787609 0.023515601933218673 0.038243560234101817 0.014857074553547733 0.0073238619382027543 0.050588777953177504 0.080189209221040503 -0.01514230220104921
leaf_weight=3135 300 419 232 531 123 750 391 97 104 99 74 94 539 51 562 168 54 142 111 175 71 81 210 789 97 234 207 137 215 241 77 154 82 316
leaf_count=3135 300 419 232 531 123 750 391 97 104 99 74 94 539 51 562 168 54 142 111 175 71 81 210 789 97 234 207 137 215 241 77 154 82 316
internal_value=0 -0.0110553 0.0429849 -0.00305442 -0.00790967 -0.0127188 0.00674419 0.0118933 0.0229563 -0.00841835 0.0160265 0.00812814 -0.00757876 0.0580305 0.0646595 -0.02244 0.0274806 0.0381349 -0.01624 0.0118426 0.0200729 0.0397115 0.00164589 -0.0142359 0.0181408 0.00520911 -0.000689518 0.00795991 0.0224796 0.0260615 0.0438977 0.0364459 0.0593809 -0.00775373
internal_weight=0 8774 2288 5155 3595 2707 888 765 495 270 173 1560 2288 1157 844 3619 1131 524 205 1355 602 313 960 1328 607 753 519 312 510 456 282 231 224 484
internal_count=11062 8774 2288 5155 3595 2707 888 765 495 270 173 1560 2288 1157 844 3619 1131 524 205 1355 602 313 960 1328 607 753 519 312 510 456 282 231 224 484
is_linear=0
shrinkage=0.1


Tree=14
num_leaves=35
num_cat=0
split_feature=14 14 42 14 14 42 43 43 36 42 43 36 42 36 14 36 43 43 43 42 32 42 42 43 32 42 43 42 36 14 32 43 42 42
split_gain=388.774 75.0398 32.3943 23.8436 12.1297 13.1165 15.1159 10.2491 15.0747 10.1242 8.3461 8.25755 8.74752 8.25471 7.52251 7.40727 7.15049 6.45909 6.4872 6.00848 5.83127 5.55451 5.30533 5.24488 5.95367 7.99372 5.22327 4.28381 4.1651 5.09324 3.81514 4.55283 3.56608 3.25558
threshold=24.15873746266125 4.6681681942884135 4.001968622557003 47.301890574864245 12.497889699951626 32.203748711870539 12.961316914237608 38.824905442858388 4.6666898849792195 22.563190622088459 28.072308285410319 32.453246999363706 4.4670500180764137 10.114421987128749 6.0176099590153944 44.046560192340394 1.263100224146035 96.592036174542741 173.59688358871372 27.81782666235916 56.935265202661334 18.353130492111195 6.8612303382148667 52.289891852668035 51.995503536997816 33.181563353795617 8.4027296673867724 1.3734149704148748 28.042831064820788 28.564126618471352 24.876500907414464 5.131989086559674 10.902820228305112 2.5983982714899114
decision_type=10 8 10 10 8 10 10 8 8 10 10 8 10 10 10 8 10 8 10 10 10 10 10 10 10 10 8 8 10 10 10 8 10 10
left_child=1 16 27 7 11 10 20 8 -2 15 19 -4 -13 -9 -14 -5 -1 23 -19 30 -7 26 -10 24 25 -11 -16 -3 -24 -30 31 -6 33 -18
right_child=3 2 4 9 5 6 -8 13 22 17 -12 12 14 -15 21 -17 32 18 -20 -21 -22 -23 28 -25 -26 -27 -28 -29 29 -31 -32 -33 -34 -35
leaf_value=-0.028116989565674697 -0.011111271566630382 -0.02307469129146808 0.0063870803594611187 -0.0042073297788176615 0.039482823679982515 -0.013167191306693535 -0.05539011260843836 0.023281766883519597 0.0064071328827628379 0.071714794833678749 -0.0074789290369405015 0.023736902111593416 -0.029092288399679644 -0.011356549654155971 0.0059717487465994938 0.042233370054189284 -0.02010249444433931 0.082389716222269899 0.03827156019315385 0.05272603463381529 0.030158440313416426 -0.02744216793992867 0.0435319056483702 0.035846075335253795 0.069975441269247249 0.026943599737769976 -0.013709670132892725 -0.0091702506523012213 0.044800200137413211 0.0063896194986272151 -0.0044524912376488956 0.017097032845186419 -0.04098603734182138 -0.012763584682556917
leaf_weight=909 66 248 973 54 105 63 53 253 51 61 120 82 162 92 356 89 1522 143 54 52 56 93 647 223 178 124 213 2025 60 79 67 682 63 1044
leaf_count=909 66 248 973 54 105 63 53 253 51 61 120 82 162 92 356 89 1522 143 54 52 56 93 647 223 178 124 213 2025 60 79 67 682 63 1044
internal_value=0 -0.00914462 -0.00166958 0.0380051 0.0050168 0.0128663 -0.012523 0.028859 0.0344607 0.0501985 0.0171467 -3.61077e-07 -0.0068586 0.0140266 -0.00997836 0.0249702 -0.020437 0.054693 0.0710519 0.0204223 0.00746158 -0.0051908 0.0380811 0.0488597 0.0564949 0.0426148 -0.00142908 -0.0107157 0.0401041 0.0235659 0.0182776 0.0202223 -0.0177526 -0.017135
internal_weight=0 8888 5350 2174 3077 1198 172 1248 903 926 1026 1879 906 345 824 143 3538 783 197 906 119 662 837 586 363 185 569 2273 786 139 854 787 2629 2566
internal_count=11062 8888 5350 2174 3077 1198 172 1248 903 926 1026 1879 906 345 824 143 3538 783 197 906 119 662 837 586 363 185 569 2273 786 139 854 787 2629 2566
is_linear=0
shrinkage=0.1


Tree=15
num_leaves=35
num_cat=0
split_feature=27 2 27 40 22 40 2 30 2 27 30 22 2 2 22 2 2 2 2 2 30 2 2 27 27 40 40 22 27 27 30 40 2 2
split_gain=183.425 38.0869 37.6569 31.4665 28.1167 19.9311 14.0223 22.3172 22.3858 13.0168 12.8093 12.3936 12.1629 12.0371 10.0727 9.31281 9.08345 8.87551 8.66791 8.14315 14.358 7.99889 9.87623 7.66181 7.6057 7.02804 6.33379 6.25342 6.0715 5.57488 5.5154 6.90903 5.24299 5.22055
threshold=7.7609752423219485 10.500000000000002 1.0922062015500675 5.0853376536733546 54.246011736118597 8.417260482992349 33.500000000000007 196.75216187331526 115.50000000000001 14.569398108335738 7.5873328366337489 9.6940686365136806 111.50000000000001 107.50000000000001 12.655828726268625 89.500000000000014 191.50000000000003 2.5000000000000004 194.50000000000003 139.50000000000003 29.703811962423782 154.50000000000003 166.50000000000003 1.0000918540522341 18.480387005048676 4.0566136000586797 52.603256506468732 47.574768793498144 1.0002912882643067 12.209099832923094 22.69428933490164 13.540322918060335 66.500000000000014 80.500000000000014
decision_type=10 2 10 8 10 10 2 8 2 10 10 10 2 2 10 2 2 2 2 2 10 2 2 10 10 10 10 10 10 10 10 10 2 2
left_child=1 17 23 -2 6 12 29 14 11 -10 -7 -9 13 33 26 -16 25 -1 -18 20 -12 -21 -23 -3 -13 -14 30 -17 -25 -5 31 -8 -26 -4
right_child=3 2 5 4 -6 10 7 8 9 -11 19 24 16 -15 15 27 18 -19 -20 21 -22 22 -24 28 32 -27 -28 -29 -30 -31 -32 -33 -34 -35
leaf_value=-0.0069058178934980844 -0.0038366226469513467 -0.028426054304999299 -0.00017057319594559613 0.016842916068931423 0.04284803957005151 0.047727093366810525 0.0029079970536538616 0.044038729435925815 0.0015355251998786469 -0.052290195321627701 0.0047030867738348829 -0.011958558044158095 -0.020398252936812113 0.030609783987273223 0.056157846995076893 0.027971469286078424 0.026585445619928535 0.029906002161812023 -0.0079541827210873987 -0.037409395713914648 0.062240857905784597 0.040476050368368127 -0.0035268403305635057 0.010253328511334328 0.024058448002824206 -0.0020467905119694626 0.039852533675730231 -0.0078714890743463509 -0.018018126066286295 0.050920943278453257 -0.014587484440775685 0.038582098033083115 -0.0029421415795450627 -0.012185522825107237
leaf_weight=82 491 908 1193 72 596 75 192 95 80 99 152 169 1282 105 115 709 75 304 1075 54 58 56 374 80 195 250 61 51 1047 170 96 73 112 516
leaf_count=82 491 908 1193 72 596 75 192 95 80 99 152 169 1282 105 115 709 75 304 1075 54 58 56 374 80 195 250 61 51 1047 170 96 73 112 516
internal_value=0 -0.00840791 -0.0100291 0.0195455 0.0235247 -0.00555779 0.0184439 0.0157078 0.00196281 -0.0286052 0.00929342 0.0116449 -0.00810246 -0.00177349 0.023633 0.0297463 -0.0123764 0.0220929 -0.00563829 0.00495237 0.0212473 -0.00220507 0.0024445 -0.0215722 0.00494437 -0.0174134 0.0108369 0.0255447 -0.0159894 0.0411124 0.00564598 0.0130571 0.0142749 -0.00381325
internal_weight=0 7686 7300 3376 2885 5265 2289 2047 750 179 769 571 4496 1814 1297 875 2682 386 1150 694 210 484 430 2035 476 1532 422 760 1127 242 361 265 307 1709
internal_count=11062 7686 7300 3376 2885 5265 2289 2047 750 179 769 571 4496 1814 1297 875 2682 386 1150 694 210 484 430 2035 476 1532 422 760 1127 242 361 265 307 1709
is_linear=0
shrinkage=0.1


Tree=16
num_leaves=35
num_cat=0
split_feature=16 16 16 16 44 44 24 44 22 24 26 22 26 44 22 22 44 22 44 44 26 22 22 16 26 24 44 16 44 24 11 11 26 22
split_gain=331.258 51.2832 31.0549 21.9957 14.1762 11.8888 11.211 12.0249 8.72825 12.6367 9.12033 8.70749 8.69675 9.97294 8.60308 14.2134 7.3558 6.9252 6.10992 5.6833 5.61839 4.94267 10.9133 4.78856 6.29534 5.75392 5.10396 4.77143 7.48366 5.55332 4.74831 4.68815 4.6797 4.52758
threshold=20.759024473187591 6.6263507996683542 38.832831675571107 2.2638140542911098 22.078068956067135 56.148960030046915 4.1830466218406146 49.055444230259383 22.153903012993819 31.405696181035328 55.589987818275254 17.352812830220401 5.857683696559123 29.052885731375078 59.3872769539933 47.574768793498144 30.527566756076947 70.453334020696559 7.3433563317919992 114.93204519151061 4.339949785439063 26.680120750338638 39.229488389554383 9.6705111903301972 1.0002493772453034 1.0973813976933624 3.0004921556319535 32.035948717427516 15.798917469918411 2.045175943726123 1.070930471635543 15.150091014018875 2.2308870560564515 7.2477620088532904
decision_type=10 10 10 8 10 10 8 8 10 10 10 10 10 10 10 10 10 10 10 10 8 10 10 10 10 8 8 10 10 10 8 10 8 10
left_child=1 3 5 -1 18 17 -4 8 9 16 12 -6 13 -10 15 19 -8 20 21 33 -2 23 -23 24 -3 -25 -27 -22 29 -29 -26 -16 -28 -9
right_child=2 4 6 -5 11 -7 7 14 10 -11 -12 -13 -14 -15 31 -17 -18 -19 -20 -21 27 22 -24 25 30 26 32 28 -30 -31 -32 -33 -34 -35
leaf_value=-0.023897303878002867 6.8101249635219577e-05 -0.0110285875306354 0.079550818496205836 -0.010364459711282262 -0.0097420243555790802 -0.0097915044867179623 0.01010447497955402 0.036101027435124521 0.062465514032269964 -0.028358626304702331 0.0082928832567913443 -0.054095709546093357 0.073685127528090227 0.0046535104869262264 0.086331891885492951 -0.0030071127610128436 0.057328986335131865 -0.0025423971301114017 0.011384383457840633 0.0233628500419048 0.023789775772684433 -0.049775500846063275 0.0095328458201359295 0.033715163511626518 0.035109767569142775 -0.020804478853607356 -0.016990271722897889 0.036756134564875739 0.051985550529923277 -0.0025121977552771571 0.0020145935546606779 0.049048300945518042 0.011884484395683442 0.064566156832209981
leaf_weight=1664 72 407 86 4336 207 107 89 96 53 52 68 54 92 65 93 58 51 85 917 72 649 55 65 78 51 64 61 88 188 59 222 79 471 208
leaf_count=1664 72 407 86 4336 207 107 89 96 53 52 68 54 92 65 93 58 51 85 917 72 649 55 65 78 51 64 61 88 188 59 222 79 471 208
internal_value=0 -0.00901123 0.032888 -0.0141276 0.00256723 0.0218494 0.0446568 0.0416544 0.0293214 0.0126444 0.0405815 -0.0194291 0.0507727 0.0315249 0.051028 0.0429433 0.0281495 0.0248344 0.00498967 0.0499991 0.027039 0.000996372 -0.0182012 0.00273426 -0.00318083 0.00868965 0.00526205 0.0290063 0.0388115 0.0212603 0.00851163 0.0703418 0.00849695 0.0560178
internal_weight=0 8652 2410 6000 2652 1248 1162 1076 470 192 278 261 210 118 606 434 140 1141 2391 376 1056 1474 120 1354 680 674 596 984 335 147 273 172 532 304
internal_count=11062 8652 2410 6000 2652 1248 1162 1076 470 192 278 261 210 118 606 434 140 1141 2391 376 1056 1474 120 1354 680 674 596 984 335 147 273 172 532 304
is_linear=0
shrinkage=0.1


Tree=17
num_leaves=35
num_cat=0
split_feature=12 12 2 12 2 28 2 2 12 0 0 2 0 12 12 12 28 28 2 2 2 0 0 28 12 2 0 2 0 0 0 2 2 28
split_gain=311.333 51.2259 32.9573 30.1298 30.0325 16.4421 15.3366 17.9095 11.1297 10.9099 10.9198 10.4158 9.84606 8.86072 7.10426 6.88517 6.77548 6.70123 6.67852 6.49764 22.9922 7.4938 6.39724 12.3809 5.66105 6.99034 4.95908 9.91023 4.63411 5.38602 4.61366 4.59546 4.58011 4.18736
threshold=8.26962376501824 21.944461194657077 6.5000000000000009 4.9450336743790348 13.500000000000002 10.203693095716668 82.500000000000014 197.50000000000003 50.763478367892603 34.500000000000007 86.500000000000014 87.500000000000014 66.500000000000014 1.7727045643380173 48.094575528293866 40.989465687445566 1.0000221913052283 48.470939345310576 12.500000000000002 168.50000000000003 205.50000000000003 68.000000000000014 49.500000000000007 23.594855708636363 15.695958253538423 71.500000000000014 59.500000000000007 176.50000000000003 106.50000000000001 43.500000000000007 118.50000000000001 90.500000000000014 59.500000000000007 7.6059443673730778
decision_type=10 10 2 10 2 8 2 2 10 2 2 2 2 10 10 10 10 8 2 2 2 2 2 10 10 2 2 2 2 2 2 2 2 8
left_child=2 6 9 13 -3 11 24 17 22 -1 -11 14 -9 18 -6 -13 -5 -8 -4 21 -21 -10 23 -7 25 32 31 30 29 -17 -28 -24 -2 -20
right_child=1 4 3 16 5 8 7 12 19 10 -12 15 -14 -15 -16 28 -18 -19 33 20 -22 -23 26 -25 -26 -27 27 -29 -30 -31 -32 -33 -34 -35
leaf_value=-0.010546445451854241 0.017264084312932398 0.10489419578973735 -0.00051724678807884682 -0.025549936880646596 0.021772836238095488 0.045885536819696426 -0.00050387304434319714 0.030364504544912074 0.021876990843919062 0.053146008881301166 0.0065904650641115088 0.020879865438624655 0.0024433441130007993 -0.014403236502825628 0.064447649839249527 0.015643806686555899 -0.00043086872806226645 -0.031407117836275388 -0.020814111616831121 -0.0058869364098287549 0.062788197445614188 0.062029258331657677 0.061972997457452932 -0.0092479965023019098 0.039657932223793581 0.045574286574763916 0.013980782344262192 0.056935222968459133 0.020058022053545399 -0.022274433375778609 0.041678235747597436 0.032756420672913782 -0.012350240034117763 -0.030275964442306347
leaf_weight=81 208 53 126 113 108 62 916 331 60 111 92 262 204 2775 63 51 1447 73 1362 88 105 301 98 107 174 67 306 87 63 122 74 150 67 755
leaf_count=81 208 53 126 113 108 62 916 331 60 111 92 262 204 2775 63 51 1447 73 1362 88 105 301 98 107 174 67 306 87 63 122 74 150 67 755
internal_value=0 0.0215602 -0.0129977 -0.0144397 0.0322849 0.0303119 0.0101739 0.00510643 0.036343 0.020205 0.0324502 0.0172437 0.0197909 -0.0182114 0.0383352 0.00981528 -0.00229594 -0.00287298 -0.0228972 0.0475414 0.0318644 0.0555911 0.029188 0.011426 0.0250248 0.0172997 0.033321 0.0269222 -0.00257619 -0.0110201 0.0196587 0.0449044 0.00999354 -0.0242266
internal_weight=0 4200 6862 6578 2160 2107 2040 1524 1438 284 203 669 535 5018 171 498 1560 989 2243 554 193 361 884 169 516 342 715 467 236 173 380 248 275 2117
internal_count=11062 4200 6862 6578 2160 2107 2040 1524 1438 284 203 669 535 5018 171 498 1560 989 2243 554 193 361 884 169 516 342 715 467 236 173 380 248 275 2117
is_linear=0
shrinkage=0.1


Tree=18
num_leaves=35
num_cat=0
split_feature=16 16 16 25 16 38 16 38 10 38 16 38 38 16 25 38 38 25 25 46 25 46 38 10 38 46 10 10 46 10 10 10 38 10
split_gain=225.46 35.5453 22.168 16.2907 12.0253 11.7747 9.95334 10.9618 9.16387 8.11207 7.31168 6.8663 8.07636 6.95768 6.79006 5.95112 5.82843 12.4676 5.80055 5.75014 5.37135 6.17806 5.25236 10.4612 4.99907 4.98027 4.86671 4.63155 4.62718 4.49459 4.33545 4.65103 3.99669 6.54661
threshold=20.759024473187591 6.6263507996683542 38.832831675571107 173.49292555748787 2.2638140542911098 15.994152294771901 67.786012354876632 81.833902818945717 10.554386878573601 2.9376993839712138 41.685240070261081 5.1880434618362736 13.30341393249371 29.909882428136957 56.654737910422433 23.856850751207471 23.409603863665502 3.8552912361731742 1.0480992507496094 27.617739226928901 8.8244471486534604 13.269768854554814 60.70669659424312 53.699098858393604 2.5837780594321358 4.0866232884245202 28.749220526813151 16.725038510643092 1.2468194932438947 24.792737655683791 24.792737655683791 10.788475964160929 1.1910351861877879 12.995657103188497
decision_type=10 8 10 10 10 8 10 10 10 8 10 8 10 10 10 10 8 10 8 10 10 10 10 10 8 10 10 8 8 10 10 10 10 8
left_child=1 4 11 6 -1 9 7 10 -9 24 25 13 27 -2 -14 28 17 -12 -11 -19 -18 -22 23 -8 32 -4 -24 -13 -6 -20 31 -7 -3 -34
right_child=2 5 3 -5 15 30 22 8 -10 18 16 12 14 -15 -16 -17 20 19 29 -21 21 -23 26 -25 -26 -27 -28 -29 -30 -31 -32 -33 33 -35
leaf_value=-0.019992984124186083 0.017382852980138166 -0.022208142366159606 0.072597740500889449 -0.012253034240924394 0.017624666082063836 -0.0064208787874236797 0.075440543621503944 0.033975408208142557 0.091527525935735973 -0.023449799228798262 0.066693988091949583 0.020002331976713833 0.022554888393232126 0.059591812726110222 -0.013275268943659192 -0.040211301471196836 -0.00095351324661781917 -0.0047941605686734785 0.011229634876218822 0.038730360874561248 0.05258984987708655 0.010210058834403754 0.022384312726331481 0.024953859795125263 -0.02526081559647407 0.026721642477945853 0.059079233786234489 -0.0076076542319738934 -0.0094082713081992276 -0.0094894967515740478 -0.034213120064749906 0.021087708260165528 -0.0091314133586806821 0.017288253420371224
leaf_weight=1664 89 71 51 62 62 1624 170 69 51 52 73 83 745 72 55 59 149 68 1386 51 52 97 96 59 102 52 62 204 3038 111 51 61 198 173
leaf_count=1664 89 71 51 62 62 1624 170 69 51 52 73 83 745 72 55 59 149 68 1386 51 52 97 96 59 102 52 62 204 3038 111 51 61 198 173
internal_value=0 -0.00740532 0.0271613 0.0371031 -0.0131136 -0.00021052 0.0399107 0.0326355 0.0600709 0.00483681 0.0268092 0.0178378 0.0149051 0.0370037 0.0200512 -0.0094744 0.0214773 0.0349733 0.00852218 0.0143529 0.01252 0.0257464 0.0529604 0.0629239 -0.0056462 0.0508488 0.0376161 0.000501435 -0.0088511 0.00967744 -0.00629365 -0.00538931 -0.000979964 0.00322812
internal_weight=0 8652 2410 1162 4823 3829 1100 713 120 2093 593 1248 1087 161 800 3159 490 192 1549 119 298 149 387 229 544 103 158 287 3100 1497 1736 1685 442 371
internal_count=11062 8652 2410 1162 4823 3829 1100 713 120 2093 593 1248 1087 161 800 3159 490 192 1549 119 298 149 387 229 544 103 158 287 3100 1497 1736 1685 442 371
is_linear=0
shrinkage=0.1


Tree=19
num_leaves=35
num_cat=0
split_feature=16 16 16 30 0 54 16 0 30 38 46 0 38 30 0 0 0 0 16 0 0 16 38 0 16 38 38 38 38 46 16 38 30 16
split_gain=183.635 29.007 18.2063 12.717 11.883 11.6753 33.4581 11.1362 13.9527 10.7165 9.43156 11.0751 9.43042 9.76676 9.39219 19.7671 21.2654 18.8049 17.7193 16.4811 16.714 9.27584 9.1245 8.17958 7.80272 7.80055 8.67107 7.32855 10.6394 6.95299 6.89244 6.73409 6.64049 5.69404
threshold=20.759024473187591 4.3762324315251204 38.832831675571107 161.18665725345971 106.50000000000001 1.0000000180025095e-35 19.472368732240955 58.500000000000007 12.974195820830046 87.309931985630797 12.878736550048774 111.50000000000001 23.409603863665502 3.7253420089436173 34.500000000000007 86.500000000000014 105.50000000000001 119.50000000000001 6.9958901985816544 70.500000000000014 54.500000000000007 16.143582417463463 5.5221569653883087 82.500000000000014 37.333617234020217 16.784766275269856 8.9676528200270305 8.9676528200270305 12.466487931318825 7.4142993972358253 69.304172365335617 68.001871971088107 35.986244560351416 2.2106180329189065
decision_type=10 8 10 10 2 2 8 2 10 10 8 2 10 10 2 2 2 2 10 2 2 10 10 2 10 10 10 8 10 10 10 8 10 10
left_child=1 33 7 4 12 6 10 24 27 30 23 -12 13 -4 18 19 -17 -18 -7 20 -16 22 -13 -3 31 26 -15 -9 -29 -25 -6 -2 -10 -1
right_child=2 5 3 -5 9 14 -8 8 32 -11 11 21 -14 25 15 16 17 -19 -20 -21 -22 -23 -24 29 -26 -27 -28 28 -30 -31 -32 -33 -34 -35
leaf_value=-0.018121712103354344 0.031094827549369805 0.010544438735989915 0.070992876787346268 -0.0097477885979143069 0.029142742724507117 -0.018351214218551553 -0.027584744746335477 0.033561213801218785 -0.045878138662530828 0.076772983201614062 -0.007408199422623607 0.018761055847155116 0.017315684712026269 0.041597288719343921 0.051137186612548506 -0.04282528068870306 0.042133298516273503 -0.022789009650806328 0.0407350580819184 0.062494473504401488 -0.0032657526256345167 0.039910227240573977 -0.029408057878026739 -0.011477508383205038 -0.010379697913303973 0.057785631318030689 -0.01275856882906877 -0.032859281811989466 0.014352849263890808 0.015523710285520388 0.059725155857288173 -0.0041849482857111483 -0.00047723640646062679 -0.0099160394479523087
leaf_weight=1625 571 994 79 63 237 243 532 131 62 104 2014 99 397 51 84 94 104 74 61 109 160 90 61 391 57 55 62 56 248 123 114 59 64 1794
leaf_count=1625 571 994 79 63 237 243 532 131 62 104 2014 99 397 51 84 94 104 74 61 109 160 90 61 391 57 55 62 56 248 123 114 59 64 1794
internal_value=0 -0.00666939 0.0245267 0.0335362 0.0360372 -0.00198668 -0.00418165 0.0160777 0.00557982 0.0484647 -0.000861595 -0.00494009 0.027073 0.0423597 0.0081632 0.015152 -0.00509288 0.0152128 -0.00621288 0.0306629 0.0158568 0.0147951 0.000193325 0.0052592 0.0245887 0.027886 0.0122151 0.0140664 0.00541976 -0.00496354 0.0394975 0.0277867 -0.0233648 -0.0138285
internal_weight=0 8652 2410 1162 1099 5233 4304 1248 561 455 3772 2264 644 247 929 625 272 178 304 353 244 250 160 1508 687 168 113 435 304 514 351 630 126 3419
internal_count=11062 8652 2410 1162 1099 5233 4304 1248 561 455 3772 2264 644 247 929 625 272 178 304 353 244 250 160 1508 687 168 113 435 304 514 351 630 126 3419
is_linear=0
shrinkage=0.1


Tree=20
num_leaves=35
num_cat=0
split_feature=12 4 49 12 12 12 52 12 12 28 28 12 28 28 28 28 12 12 12 28 28 28 4 12 28 28 12 28 28 12 12 28 12 28
split_gain=188.708 46.5903 69.7393 32.8422 25.1307 14.3656 10.3852 9.74988 9.40899 8.72216 8.27543 7.45101 6.53611 6.29957 6.23766 10.4115 9.52259 8.65779 5.54405 5.46672 4.90291 4.23523 3.36352 3.33922 4.73851 4.46567 3.61297 2.99886 5.81641 2.90168 2.80316 2.76414 2.74103 8.40781
threshold=7.1912307940055404 1.0000000180025095e-35 1.0000000180025095e-35 22.970709608891706 36.467335365351623 2.9473825102053399 1.0000000180025095e-35 65.28241375424885 13.24626995257614 1.090096544939638 35.33777912029587 32.953549030087743 21.594152184537247 64.474669306873011 10.203693095716668 5.9402234703822723 56.343509235871274 80.390594694412087 35.55688903952052 1.4500001535048672 1.0000900950044549 22.267622480757442 1.0000000180025095e-35 6.0044608601168674 4.7416011192226595 1.1890013972500955 3.0785218781724901 13.068149689542325 7.7609752423219485 21.944461194657077 4.9450336743790348 16.675158588468012 16.117128478777492 10.839816494669689
decision_type=10 2 2 10 10 8 2 10 10 10 8 10 10 10 10 10 10 10 10 8 10 8 2 10 10 8 8 10 10 10 8 8 10 8
left_child=5 2 8 31 19 20 10 18 12 -10 -6 29 -2 -12 15 -13 -16 -18 -5 -3 -1 -8 -22 26 25 -25 -7 28 30 -11 -28 -4 33 -21
right_child=1 4 3 7 6 23 21 -9 9 11 13 14 -14 -15 16 -17 17 -19 -20 32 22 -23 -24 24 -26 -27 27 -29 -30 -31 -32 -33 -34 -35
leaf_value=-0.024332326121967451 -0.011280317162377512 0.0011995390720484366 0.017691456293848912 0.059221696448478391 0.039853947380081169 0.0086640990923144059 0.0025315616852962055 0.087263417747561578 0.030283665674252683 -0.00057115988022183488 0.092558696572668853 -0.0063934494948221579 -0.047252479460286469 0.050347071164287632 -0.020058192641682245 -0.053850082376350965 0.036307329812954217 -0.006762728391799565 0.027842134138488253 0.02623062271468295 -0.017820276898929132 0.035508761149352398 -0.010104803156541586 0.018530814268160611 0.011217511739220297 -0.012496127624636637 -0.012326001229643811 -0.021107633062765571 0.011082135543057864 0.012991148981212118 -0.0056964214302552586 -0.0019984577782452108 0.026967947300417107 0.0052815043018199503
leaf_weight=586 485 141 285 134 212 123 62 78 89 344 77 123 54 93 156 72 84 99 112 479 1160 104 1134 53 234 273 1259 180 151 288 1309 94 614 321
leaf_count=586 485 141 285 134 212 123 62 78 89 344 77 123 54 93 156 72 84 99 112 479 1160 104 1134 53 234 273 1259 180 151 288 1309 94 614 321
internal_value=0 0.0156044 0.00635614 0.0329814 0.0265607 -0.0108882 0.0449557 0.0562188 -0.00411491 0.000638859 0.0540432 -0.00169582 -0.0151258 0.07074 -0.0103625 -0.0244663 -0.00210618 0.0132739 0.0454426 0.0200041 -0.0161449 0.0234556 -0.0140244 -0.00665164 0.000439333 -0.00732889 -0.00796479 -0.00867855 -0.00783338 0.00564131 -0.00895726 0.0128306 0.0218727 0.0178759
internal_weight=0 4600 2497 703 2103 6462 548 324 1794 1255 382 1166 539 170 534 195 339 183 246 1555 2880 166 2294 3582 560 326 3022 2899 2719 632 2568 379 1414 800
internal_count=11062 4600 2497 703 2103 6462 548 324 1794 1255 382 1166 539 170 534 195 339 183 246 1555 2880 166 2294 3582 560 326 3022 2899 2719 632 2568 379 1414 800
is_linear=0
shrinkage=0.1


Tree=21
num_leaves=35
num_cat=0
split_feature=12 2 2 12 22 12 2 22 38 2 2 12 38 22 18 12 38 18 2 2 38 38 12 22 22 2 2 22 38 22 38 38 2 38
split_gain=153.224 28.4245 24.4023 21.0162 14.1898 12.4033 9.71941 8.78805 7.92792 7.70965 10.772 6.7914 7.39844 6.48967 6.4572 6.40423 6.33989 6.04839 7.20942 8.83641 6.0859 11.9482 5.7235 5.3247 7.95679 6.37713 6.69672 5.3329 5.19095 7.23468 7.72239 6.07561 5.06473 4.92547
threshold=7.1912307940055404 20.500000000000004 6.5000000000000009 21.944461194657077 29.078770726054099 2.9473825102053399 4.5000000000000009 16.305843712839927 5.614943541843652 197.50000000000003 82.500000000000014 10.698213262951827 5.6909964172914007 10.938518486889 10.969301000156783 32.101440841907035 1.99203552869809 7.9699570344752155 30.500000000000004 47.500000000000007 11.153732134579267 15.636389908505993 6.0044608601168674 2.9952081620742175 24.861300704398605 87.500000000000014 161.50000000000003 1.4765654327303961 18.994028634289808 25.54570623166391 71.609541116033412 16.430812207753643 125.50000000000001 6.4692490261589954
decision_type=10 2 2 10 10 10 2 10 10 2 2 10 10 10 10 10 10 8 2 2 10 10 10 10 10 2 2 10 10 10 10 8 2 8
left_child=2 15 6 4 9 33 -1 22 -9 10 16 -6 -13 -11 -14 -2 -3 20 -19 -20 23 -22 32 27 25 -25 -27 -5 31 30 -30 -21 -7 -4
right_child=1 3 5 17 11 7 -8 8 -10 13 -12 12 14 -15 -16 -17 -18 18 19 28 21 -23 -24 24 -26 26 -28 -29 29 -31 -32 -33 -34 -35
leaf_value=0.0046648994239198195 0.035038530018952012 -0.0066802618513395508 -0.012358508875610462 0.02205293728092967 -0.039048689921145088 -0.0011777720093065968 0.042960737211008869 -0.047314793797405927 -0.003177957609295845 0.012142963554638085 -0.00059964412911510292 0.021704391201197264 -0.044024928325885226 0.035948433402509243 -0.001404547589659995 0.075979655366632856 0.02275793898163771 -0.0097292487583463157 0.053670766193745202 0.026402441221289336 -0.037365055558356369 0.013345437155811081 0.004903102245246347 0.066419476832737009 0.0054651401186174208 0.0031079407730331163 0.045481336713527089 -0.017020550696817165 0.002467126472331846 0.027223348687155653 0.033254064393609215 0.06593955034290308 -0.011171106753636761 -0.02038433389832537
leaf_weight=182 96 88 2254 64 78 876 102 92 72 417 1023 68 54 158 95 74 399 60 100 157 63 154 502 54 126 70 78 70 334 562 105 53 1204 1178
leaf_count=182 96 88 2254 64 78 876 102 92 72 417 1023 68 54 158 95 74 399 60 100 157 63 154 502 54 126 70 78 70 334 562 105 53 1204 1178
internal_value=0 0.0140703 -0.00980188 0.0125077 0.00610336 -0.0111217 0.0187243 -0.00610257 -0.0283428 0.0090102 0.0052383 -0.0143255 -0.00502752 0.0188369 -0.0174149 0.0538685 0.0174302 0.0199231 0.0237527 0.0253038 0.0121202 -0.00168573 -0.00465869 0.0185738 0.025383 0.0375453 0.0258998 0.00171567 0.0228345 0.0197252 0.0100065 0.037169 -0.00697013 -0.0151287
internal_weight=0 4600 6462 4430 2380 6178 284 2746 164 2085 1510 295 217 575 149 170 487 2050 1371 1311 679 217 2582 462 328 202 148 134 1211 1001 439 210 2080 3432
internal_count=11062 4600 6462 4430 2380 6178 284 2746 164 2085 1510 295 217 575 149 170 487 2050 1371 1311 679 217 2582 462 328 202 148 134 1211 1001 439 210 2080 3432
is_linear=0
shrinkage=0.1


Tree=22
num_leaves=35
num_cat=0
split_feature=16 16 16 32 16 40 32 32 40 16 16 32 40 32 36 36 32 40 16 16 32 36 32 40 36 36 32 16 36 16 16 32 40 16
split_gain=105.719 17.7943 12.5809 11.2697 9.11446 7.56719 10.0773 6.92711 6.79685 6.36911 6.10443 10.896 5.91502 5.46982 5.53917 5.06899 4.67577 4.42319 4.1209 4.96562 7.64737 11.1666 9.08454 5.50802 4.47048 3.8668 3.81694 3.68931 3.66263 5.12011 3.61553 10.1057 5.00593 5.38863
threshold=20.759024473187591 6.6263507996683542 34.5199457692243 24.206273860836145 10.277601191808429 47.603171227235372 95.177692006584593 1.8138575611589594 1.4678520103210639 44.526730129465186 2.2106180329189065 8.4233240203675184 19.157822092122306 41.872602965249449 11.685438567476888 5.9811520148395649 27.910657744045483 39.08129644472654 72.023088308818657 36.065152438988896 14.187425472984408 99.537223084611313 71.141082452266218 37.846160666614345 47.657877108355869 4.4604820608032485 1.992394293504417 12.467071049367695 5.8014187784490288 16.43906861593889 23.665449836030731 15.391721984772628 14.268375449861711 29.909882428136957
decision_type=10 8 10 8 10 10 10 10 8 10 10 10 10 10 8 10 10 10 10 10 10 8 10 8 10 8 10 10 10 10 10 10 8 10
left_child=1 10 13 7 16 18 9 -3 -9 -7 -1 -12 26 14 -2 -11 -5 30 19 -4 21 -21 23 24 -22 -14 -10 -27 29 -6 31 -16 -32 -34
right_child=2 3 5 4 28 6 -8 8 12 15 11 -13 25 -15 17 -17 -18 -19 -20 20 22 -23 -24 -25 -26 27 -28 -29 -30 -31 32 -33 33 -35
leaf_value=-0.014065657450453692 -0.010025085663437495 -0.0074190685735530913 0.046155985598580557 -0.0060806602182678403 -0.052715047539617768 -0.023555057811109462 0.04209730762418025 -0.024957696931517642 0.028424816497878987 -0.014445242961529265 -0.0044181210267734495 -0.022696793751414427 0.014098366792722231 -0.0091935086042874252 0.049006837021646113 0.019342700361551064 0.018513140237944967 0.039118141536473312 0.042616280590391881 -0.023278799173422158 0.055795773507954262 0.024230255360643452 0.0073240470587955537 0.023466694159923418 0.020992883340569965 -0.037388872233304109 0.0077020812786460658 -0.0055729018670061361 -0.003727643639502818 -0.016567709959215589 -0.010782432474774645 -0.0042679538743363487 0.0034705225204376515 0.025641291713251208
leaf_weight=1625 93 466 106 860 75 64 86 66 91 56 2832 366 54 129 83 182 82 70 188 77 163 127 145 187 54 52 1830 112 54 87 100 60 238 202
leaf_count=1625 93 466 106 860 75 64 86 66 91 56 2832 366 54 129 83 182 82 70 188 77 163 127 145 187 54 52 1830 112 54 87 100 60 238 202
internal_value=0 -0.00503688 0.0186332 5.35549e-05 -0.00817342 0.0245857 0.0125182 0.00362549 0.00596653 0.00376374 -0.00907571 -0.00652936 0.00695433 0.00982377 0.0127458 0.0113117 -0.00388782 0.0155868 0.0290092 0.0258932 0.022869 0.00622043 0.0289879 0.036652 0.0475395 -0.00856862 0.00872653 -0.0161513 -0.0265541 -0.0339568 0.0130145 0.0270254 0.00917545 0.0137536
internal_weight=0 8652 2410 3829 1158 1435 388 2671 2205 302 4823 3198 2139 975 846 238 942 753 1047 859 753 204 549 404 217 218 1921 164 216 162 683 143 540 440
internal_count=11062 8652 2410 3829 1158 1435 388 2671 2205 302 4823 3198 2139 975 846 238 942 753 1047 859 753 204 549 404 217 218 1921 164 216 162 683 143 540 440
is_linear=0
shrinkage=0.1


Tree=23
num_leaves=35
num_cat=0
split_feature=51 30 2 26 2 2 1 2 2 30 1 1 1 2 1 1 1 1 30 26 2 2 30 1 30 1 1 26 26 1 2 26 1 2
split_gain=33.2086 31.1756 29.4214 20.1659 18.4211 21.9692 14.7929 12.323 15.0281 11.4589 11.055 10.9284 8.84127 8.13666 7.20473 6.72032 12.176 10.5479 6.64523 6.46672 6.37128 6.84812 6.30672 6.12804 5.92936 5.90762 14.0082 5.40878 5.20439 4.95792 4.49138 6.72257 4.42491 4.20211
threshold=1.0000000180025095e-35 2.0570511300339978 13.500000000000002 5.9064563347151884 111.50000000000001 106.50000000000001 25.500000000000004 191.50000000000003 194.50000000000003 3.7091674135959449 6.5000000000000009 24.500000000000004 2.5000000000000004 139.50000000000003 30.500000000000004 12.500000000000002 10.500000000000002 14.500000000000002 1.2701450489050192 5.857683696559123 84.500000000000014 30.500000000000004 7.7111434293879642 25.500000000000004 5.6095630590943992 11.500000000000002 14.500000000000002 50.783207265209924 6.2563070579314646 27.500000000000004 101.50000000000001 1.9651176558737551 23.500000000000004 129.50000000000003
decision_type=2 10 2 10 2 2 2 2 2 10 2 2 2 2 2 2 2 2 10 8 2 2 8 2 10 2 2 10 10 2 2 10 2 2
left_child=2 23 12 4 5 6 11 13 -9 20 -3 15 -1 19 22 16 -4 -17 -7 -6 21 -8 24 33 -10 -15 -27 30 -5 -21 -12 32 -32 -2
right_child=1 10 3 28 7 18 9 8 14 -11 27 -13 -14 25 -16 17 -18 -19 -20 29 -22 -23 -24 -25 -26 26 -28 -29 -30 -31 31 -33 -34 -35
leaf_value=-0.0067286798620925237 0.0104531375004689 0.060919578910095265 -0.0063114387901677272 0.037524111751742945 0.008363787598624807 0.018695929699202276 0.002417315069237366 0.034145762252488304 -0.0047181171280334423 0.050938318522452425 0.047020144908988884 -0.047079402331503171 0.029391795105925978 -0.027765684810173497 0.022617880291328198 0.016248273919707248 -0.037078835872844572 -0.0045007387085660103 0.058259236537560356 -0.0089982485941934639 -0.0089738026826386482 0.030669354140413125 -0.015714639049097385 -0.014613622202278052 0.02648766831438424 0.021404165436619337 -0.019098685368562938 0.054800256314101049 0.0058586971306234942 -0.03615543247720638 0.013637826736801521 0.026822264817353614 -0.019946573905292014 -0.0031092917004915057
leaf_weight=82 663 98 1047 51 196 141 200 95 786 64 56 59 362 572 79 311 144 1112 61 567 168 148 598 169 63 94 738 51 1439 74 101 267 60 346
leaf_count=82 663 98 1047 51 196 141 200 95 786 64 56 59 362 572 79 311 144 1112 61 567 168 148 598 169 63 94 738 51 1439 74 101 267 60 346
internal_value=0 0.0124879 -0.00230917 -0.00357833 -0.00573766 -0.000431448 -0.00243021 -0.0104807 -0.00382879 0.0120071 0.0303302 -0.00557283 0.0227205 -0.0152806 -0.00625523 -0.0045831 -0.0101152 5.86496e-05 0.031321 -0.00743878 0.00691188 0.014592 -0.00787511 0.00284767 -0.00231738 -0.0199298 -0.0144622 0.0244184 0.00701577 -0.0122872 0.0208992 0.017178 0.000985975 0.00580696
internal_weight=0 1811 9251 8807 7317 3455 3253 3862 1621 580 633 2673 444 2241 1526 2614 1191 1423 202 837 516 348 1447 1178 849 1404 832 535 1490 641 484 428 161 1009
internal_count=11062 1811 9251 8807 7317 3455 3253 3862 1621 580 633 2673 444 2241 1526 2614 1191 1423 202 837 516 348 1447 1178 849 1404 832 535 1490 641 484 428 161 1009
is_linear=0
shrinkage=0.1


Tree=24
num_leaves=35
num_cat=0
split_feature=48 16 16 2 2 16 51 16 2 2 40 2 51 2 2 2 24 24 24 2 2 40 2 51 2 40 16 24 24 2 2 2 16 40
split_gain=115.137 119.677 20.0961 21.7544 15.8016 14.5257 15.8163 11.7443 10.5757 9.87765 9.83687 8.3666 8.28397 8.02448 11.1705 7.99073 9.52802 7.80833 6.90845 6.19397 5.92579 8.35725 5.67125 6.23331 5.53226 7.06411 5.47713 5.46489 5.31209 4.99877 8.57723 5.3406 4.68272 5.70224
threshold=1.0000000180025095e-35 20.759024473187591 6.6263507996683542 13.500000000000002 14.500000000000002 38.832831675571107 1.0000000180025095e-35 30.799026288014165 191.50000000000003 144.50000000000003 59.878197120413319 198.50000000000003 1.0000000180025095e-35 47.500000000000007 30.500000000000004 185.50000000000003 15.850770242866 18.450585401829766 19.187061887605342 133.50000000000003 141.50000000000003 1.0386711522868664 3.5000000000000004 1.0000000180025095e-35 197.50000000000003 3.4900733668024695 1.9706252198215997 15.426682290258338 1.0102153705860892 138.50000000000003 162.50000000000003 169.50000000000003 27.637600895281746 5.9028522728512556
decision_type=2 10 10 2 2 10 2 8 2 2 8 2 2 2 2 2 10 8 8 2 2 10 2 2 2 10 10 10 10 2 2 2 10 10
left_child=1 2 3 22 -2 9 -7 -6 20 17 15 28 13 14 -4 16 -11 -3 29 -9 21 26 -1 -24 25 -20 -5 -17 -10 -15 -31 -32 -19 -34
right_child=4 5 12 8 7 6 -8 19 11 10 -12 -13 -14 18 -16 27 -18 32 24 -21 -22 -23 23 -25 -26 -27 -28 -29 -30 30 31 -33 33 -35
leaf_value=-0.0055238577665067193 0.02050321377695553 0.038683061811423773 -0.0054118526518925451 -0.014976758742585587 -0.025557108917341372 0.02732289978220059 0.059738387864459543 -0.036239687007375412 -0.0062309879077864548 -0.035009451007301157 -0.028571457850016857 -0.0028247485261463892 0.018166627898123504 0.011850326996271129 0.046092233908681619 0.038534624332341512 0.017131345376372339 -0.00042660917470774317 -0.0072525997372494214 -0.068257730164321836 -0.016936164129218285 0.0044485251581979956 0.02897261831033697 -0.0016476570311319699 0.015655368818871439 -0.04146966816787067 -0.0050989746975831831 0.0066057182265288929 0.030939206169127965 -0.019292070253626059 0.032329125850210118 0.0018156225420319361 0.032924296053563611 0.0047342824958801523
leaf_weight=99 60 238 74 1167 890 839 185 169 53 63 71 1078 429 508 93 111 72 124 208 108 937 467 265 88 59 83 1088 104 129 189 60 646 193 115
leaf_count=99 60 238 74 1167 890 839 185 169 53 63 71 1078 429 508 93 111 72 124 208 108 937 467 265 88 59 83 1088 104 129 189 60 646 193 115
internal_value=0 0.00371936 -0.00205692 -0.00543026 -0.0287322 0.0247765 0.0333366 -0.0313097 -0.00736154 0.0166727 0.00462193 0.000539578 0.00565331 0.00283338 0.0235773 0.011541 -0.00743314 0.0241906 0.000820305 -0.0493208 -0.0100806 -0.00770458 0.0154973 0.0213897 -0.0116885 -0.0173357 -0.010224 0.0233934 0.0201894 0.00395911 -0.000544547 0.00453466 0.0159945 0.022546
internal_weight=0 9835 7720 5371 1227 2115 1024 1167 4919 1091 421 1260 2349 1920 167 350 135 670 1753 277 3659 2722 452 353 350 291 2255 215 182 1403 895 706 432 308
internal_count=11062 9835 7720 5371 1227 2115 1024 1167 4919 1091 421 1260 2349 1920 167 350 135 670 1753 277 3659 2722 452 353 350 291 2255 215 182 1403 895 706 432 308
is_linear=0
shrinkage=0.1


Tree=25
num_leaves=35
num_cat=0
split_feature=42 29 29 11 29 11 29 29 11 11 29 42 42 29 42 29 29 11 29 42 29 29 42 42 11 29 11 11 42 29 42 11 42 42
split_gain=33.7159 10.6669 8.02887 7.23288 6.04354 5.2912 7.99287 5.03887 8.46887 7.25832 4.31173 3.71095 5.87792 3.33505 4.84392 2.95152 3.1702 2.56733 3.62908 3.66128 3.63655 2.77291 2.56543 5.55382 5.01899 4.41964 4.31518 5.07507 4.09551 3.18643 4.17255 3.90041 4.22994 2.52949
threshold=6.133105357433644 2.2601015461128302 2.8003113142300138 23.00559167359123 48.470939345310576 9.0006406031459072 10.195730881251489 41.552974769728344 35.811014153014369 81.814931941787691 2.074577715858072 4.001968622557003 4.8945461363024512 5.8705533102270193 29.052885731375078 1.0090018004509005 1.5597266290804885 11.336407388155385 1.1170140949945242 14.120436141897629 1.3600505042265112 1.8335015774064225 29.052885731375078 33.946262425067083 14.552551381680988 3.713236038115836 6.1696824725756834 2.3591805305110838 17.993214023821562 19.85174944172628 8.4234528148373968 3.6038528911645193 17.993214023821562 5.3160799030670463
decision_type=10 8 8 10 10 10 10 10 10 10 10 10 10 10 10 8 8 8 10 10 10 10 10 10 10 10 10 10 10 10 10 10 10 10
left_child=4 10 -3 22 5 11 -7 8 -5 -9 17 15 -13 -10 -15 -1 -17 -2 19 -19 -20 -22 25 -24 26 28 27 -25 -4 31 -31 32 -27 -14
right_child=1 2 3 7 -6 6 -8 9 13 -11 -12 12 33 14 -16 16 -18 18 20 -21 21 -23 23 24 -26 29 -28 -29 -30 30 -32 -33 -34 -35
leaf_value=-0.014116683476183018 0.007408024113078321 0.036186177599444695 0.0015966878278911242 0.027411658620659016 -0.033043291965952598 -0.00033496754148449654 0.044106953987343746 0.016580883664547973 0.022200339568550127 0.057089376260581262 -0.025591341117499295 0.0082032006436587833 -0.015059381071050919 0.013225797108394567 -0.015917029981878963 0.00083838905978726806 -0.0063320649589999646 -0.0070741014754501091 -0.032785548335062219 0.024141345651199422 0.010814955665684137 -0.017385178695932577 0.02488560549216345 0.0085937457180440772 -0.021413916349411012 0.010389537976197162 0.03012372718942238 -0.020626385622855389 -0.016335737814798076 -0.021546089241432177 0.0039898887560919447 0.0021239725715197812 0.030021728710694747 -0.00094381565766336471
leaf_weight=403 186 99 506 193 71 153 52 138 54 65 88 514 215 90 145 730 3943 98 74 57 58 79 197 607 58 502 79 63 167 71 470 392 140 305
leaf_count=403 186 99 506 193 71 153 52 138 54 65 88 514 215 90 145 730 3943 98 74 57 58 79 197 607 58 502 79 63 167 71 470 392 140 305
internal_value=0 0.00655426 0.00845567 0.00773134 -0.00461846 -0.00428334 0.0114117 0.0170529 0.0113657 0.0301941 -0.00542 -0.00481527 0.000643601 0.000478418 -0.00472992 -0.00592699 -0.0052121 -0.00208333 -0.00692781 0.00464555 -0.0153755 -0.00547052 0.00575395 0.0099522 0.00622807 0.00386816 0.00844546 0.00576648 -0.00290586 0.00676274 0.000538248 0.0100085 0.0147904 -0.00683296
internal_weight=0 4676 4036 3937 6386 6315 205 685 482 203 640 6110 1034 289 235 5076 4673 552 366 155 211 137 3252 1004 807 2248 749 670 673 1575 541 1034 642 520
internal_count=11062 4676 4036 3937 6386 6315 205 685 482 203 640 6110 1034 289 235 5076 4673 552 366 155 211 137 3252 1004 807 2248 749 670 673 1575 541 1034 642 520
is_linear=0
shrinkage=0.1


Tree=26
num_leaves=35
num_cat=0
split_feature=44 30 30 44 24 30 24 44 35 20 44 24 44 44 44 30 20 35 44 44 30 24 35 44 44 20 20 44 35 44 44 24 24 35
split_gain=31.8251 7.4778 8.94117 5.74433 8.48937 4.88035 4.75923 9.56088 7.79752 7.48073 5.66478 5.42981 3.80602 7.62339 4.90986 4.72641 4.43828 3.3481 3.0801 3.03867 3.0217 2.96546 2.71517 3.28332 3.42919 2.71428 5.02705 3.23588 2.72007 3.01528 5.79827 3.21408 2.6031 2.35932
threshold=7.3433563317919992 196.75216187331526 86.060642149522465 1.7284988990841599 1.1023819602371145 1.9910267312554641 20.199834585038698 44.131897426220924 12.369063661872902 44.053635596991725 23.162644016899787 24.796289730954928 49.055444230259383 56.148960030046915 43.288477076683186 3.0910583148832904 4.0096034560910008 2.3455550731556487 7.6348257309203076 39.425772792185889 7.3110503868142063 1.0477434535609915 59.950419242991771 15.499865085936911 10.977881803077411 1.0001980001489954 1.0099787198995747 2.588934575857039 21.188709116057932 4.8249057642940985 4.1242283993459354 3.3466905782791687 1.9501187648446778 1.1641033515456012
decision_type=10 10 10 8 8 10 10 10 10 10 10 10 10 10 10 10 8 8 10 10 8 10 10 10 10 8 8 8 10 8 10 8 10 10
left_child=3 2 6 32 5 17 7 8 10 11 18 -8 14 -14 15 -13 -15 -5 -2 -4 -12 -7 23 24 -10 -6 33 -28 29 30 -29 -31 -1 -27
right_child=1 -3 19 4 25 21 9 -9 22 -11 20 12 13 16 -16 -17 -18 -19 -20 -21 -22 -23 -24 -25 -26 26 27 28 -30 31 -32 -33 -34 -35
leaf_value=-0.0085759175320947144 0.030534987947558642 -0.026636980842707342 0.04652831794137692 0.039539772215337582 -0.01592578985642619 -0.018455082368886763 -0.010181011905341032 0.043942674003275381 0.024091203565880352 -0.017262115972643755 0.0036051080039326564 0.018530462101238585 0.045123247152848822 0.030432889572804489 -0.018621225440658109 -0.00039535325240946272 0.0034133054407114146 0.012879630678022903 0.0059643015555987978 0.017422157359297998 -0.026754277525469661 0.010035791947098261 -0.0024250026106495751 0.030303525558936048 0.0015220535176922569 0.001570910674386791 -0.010217599846325353 -0.0017223086221679507 -0.018546107803353841 -0.016265506331398283 0.014704740564063035 -0.0027940966346847742 -0.027568740480077954 0.029900896324734413
leaf_weight=1127 51 58 74 70 160 59 179 81 144 156 54 215 71 76 83 334 268 147 1014 78 78 86 52 227 125 53 596 853 100 183 284 3787 75 64
leaf_count=1127 51 58 74 70 160 59 179 81 144 156 54 215 71 76 83 334 268 147 1014 78 78 86 52 227 125 53 596 853 100 183 284 3787 75 64
internal_value=0 0.00811503 0.00873815 -0.00348869 -0.00230208 0.0125132 0.00759655 0.0109441 0.00933961 0.00315934 0.00479415 0.00579362 0.00854601 0.0159529 0.00362989 0.00707682 0.00959425 0.0219016 0.00722339 0.0322185 -0.0145304 -0.00169615 0.0191881 0.021455 0.0137361 -0.00318991 -0.0028378 -0.00325519 -0.00245284 -0.00212701 0.00240874 -0.00342688 -0.00982668 0.0174278
internal_weight=0 3418 3360 7644 6442 362 3208 1826 1745 1382 1197 1226 1047 415 632 549 344 217 1065 152 132 145 548 496 269 6080 5920 5803 5207 5107 1137 3970 1202 117
internal_count=11062 3418 3360 7644 6442 362 3208 1826 1745 1382 1197 1226 1047 415 632 549 344 217 1065 152 132 145 548 496 269 6080 5920 5803 5207 5107 1137 3970 1202 117
is_linear=0
shrinkage=0.1


Tree=27
num_leaves=35
num_cat=0
split_feature=37 46 40 22 22 10 46 10 22 46 40 37 37 37 22 10 22 46 40 22 40 46 10 46 22 40 46 40 40 46 10 22 10 40
split_gain=19.5197 7.99883 6.32296 5.22744 5.0549 7.76809 4.93515 4.41261 3.93381 3.8771 3.78039 8.72223 6.43127 4.58088 3.74063 3.73477 3.70507 4.03449 4.79146 3.32538 3.04138 8.09154 2.79892 2.85659 2.69477 2.59298 2.56438 5.52383 2.91029 3.87373 2.37753 4.3992 2.39887 2.27017
threshold=4.2705249256598936 27.617739226928901 1.7236625626344904 2.3301194700908563 12.655828726268625 3.2188842702015559 25.127930441354554 12.126233731613434 1.8141307863360661 4.2016724938090002 6.8404058716724823 28.977240925125603 80.867571591722808 43.262653872810638 13.803891335145217 8.0764499425440963 12.655828726268625 5.7702072066332208 20.885925834491697 1.4275971625872694 36.25820439569187 15.008147022832057 5.3072208993323704 2.6305810769773843 5.7523751737129318 7.6836638753741324 97.445477296218129 26.044809122984464 86.241506038017761 56.883061597762662 30.878710997274144 29.078770726054099 51.467288240109347 2.0536796488613871
decision_type=10 10 8 10 10 10 10 10 10 10 8 8 10 10 10 8 10 10 10 10 8 8 10 10 10 10 10 10 10 10 10 10 10 10
left_child=15 2 -2 8 7 -6 9 -3 19 10 11 14 13 -12 -5 22 17 24 -19 -4 21 -17 25 -24 -11 33 27 -7 29 -29 31 -18 -32 -1
right_child=1 4 3 6 5 26 -8 -9 -10 16 12 -13 -14 -15 -16 20 30 18 -20 -21 -22 -23 23 -25 -26 -27 -28 28 -30 -31 32 -33 -34 -35
leaf_value=-0.0042598162423292518 -0.013680457926172441 -0.015366541766660644 0.021934624883885447 -0.0047396391332371855 0.049186470132321122 0.026466849507055926 -0.024875947345964732 0.012896699251245654 0.030824281703218943 0.035222297791481477 0.003402603720655361 -0.036087677005405834 0.022792517890831313 -0.011176155937582623 0.018535282557089645 -0.00013133497148587863 0.019672563657305936 0.0044214354920782207 -0.018668915663348062 -0.011691387657259333 -0.0048536446033901892 -0.037269316421200835 0.0011223115615875405 0.027336186434452733 0.0063088227701545863 -0.021013475320069121 0.031616842073120481 0.0058933063074876908 0.021062884143874295 -0.023721724136196304 0.040757668108516748 -0.0024556327081211894 0.011317929180724355 0.0035980640402023291
leaf_weight=755 216 91 54 408 72 143 60 131 118 54 1907 79 153 240 80 133 221 396 113 58 3874 102 99 69 78 61 70 131 58 63 60 149 55 711
leaf_count=755 216 91 54 408 72 143 60 131 118 54 1907 79 153 240 80 133 221 396 113 58 3874 102 99 69 78 61 70 131 58 63 60 149 55 711
internal_value=0 0.00450528 0.00289838 0.00374347 0.0139813 0.0192039 0.00290377 0.0012609 0.0183126 0.00333956 0.00138329 -0.00591009 0.00318663 0.00175961 -0.000834141 -0.00390405 0.00830365 0.00328765 -0.000784065 0.00467043 -0.00553228 -0.0165174 4.5875e-05 0.0121794 0.0186569 -0.00131032 0.0142758 0.0109876 0.00199571 -0.00393873 0.0148721 0.0108134 0.0273235 -0.000449233
internal_weight=0 5258 4499 4283 759 537 4053 222 230 3993 2867 567 2300 2147 488 5804 1126 641 509 112 4109 235 1695 168 132 1527 465 395 252 194 485 370 115 1466
internal_count=11062 5258 4499 4283 759 537 4053 222 230 3993 2867 567 2300 2147 488 5804 1126 641 509 112 4109 235 1695 168 132 1527 465 395 252 194 485 370 115 1466
is_linear=0
shrinkage=0.1


Tree=28
num_leaves=35
num_cat=0
split_feature=28 1 1 28 1 25 24 25 58 1 28 1 8 1 8 28 28 25 1 1 24 28 24 25 24 25 28 24 24 25 24 28 1 1
split_gain=17.1666 7.96262 12.1877 10.5473 7.20104 8.20722 7.42125 9.80924 6.30382 11.7781 7.38468 6.89649 6.09313 8.15946 5.30645 11.1536 5.07973 6.99571 5.28762 5.26318 7.48041 4.7504 4.69256 4.64783 3.97425 3.96343 3.94901 3.62054 3.59468 4.11198 3.96331 3.22081 3.16395 4.64054
threshold=9.2186557821812869 30.500000000000004 21.500000000000004 1.2249603301189282 26.500000000000004 9.6141467726763707 16.405055826983752 12.425187751903094 1.0000000180025095e-35 28.500000000000004 22.267622480757442 29.500000000000004 36.333648360337143 13.500000000000002 71.54910136920482 90.357176438497575 51.079413957614129 6.6882294177611312 13.500000000000002 16.500000000000004 7.3281094395587223 26.571088710971615 7.8981339505959633 28.431417766259873 4.9473101335556455 1.0973750226368144 1.0000000000000016 5.142954093973886 3.9975799855664937 2.9974377094453826 6.0122864385047157 16.675158588468012 20.500000000000004 11.500000000000002
decision_type=10 2 2 10 2 10 10 10 2 2 10 2 10 2 10 10 10 10 2 2 8 10 10 10 8 10 8 10 10 8 10 10 2 2
left_child=1 2 26 -4 5 14 12 -8 9 10 -6 -11 21 -14 16 -16 17 18 25 -20 -21 -7 -18 28 -3 -2 -1 -17 -5 -30 -31 -27 33 -9
right_child=4 24 3 23 8 6 7 32 -10 11 -12 -13 13 -15 15 27 22 -19 19 20 -22 -23 -24 -25 -26 31 -28 -29 29 30 -32 -33 -34 -35
leaf_value=-0.01848010906121797 -0.011510587045003053 0.0024606425134885697 -0.017815244994319138 -0.0060626595808690922 0.019475756676458733 0.018810294612765857 0.043054605402836676 -0.0073461783639700616 -0.0099515975487199353 -0.015644332286106743 0.062230126208463771 0.021376579050472334 0.060453952885196588 0.015167890824786909 -0.053695694208145142 0.015415884785276527 0.0029176789764610547 -0.024057453410286044 0.02690062505981097 -0.011798928250965164 0.014387675279497423 -0.012886327193652998 0.0437087309180276 -0.028782844176249846 0.031380291562299149 -0.0053981502414202302 8.2279139014455264e-05 -0.017009719720844068 -0.0097863803110907199 0.028261693092676111 0.0038422880364924225 0.020168197101346499 -0.015472096915612311 0.014707760531553832
leaf_weight=114 321 90 842 880 79 216 54 190 65 79 89 128 74 88 52 69 60 105 127 178 272 58 51 67 99 104 5608 63 133 91 231 89 110 186
leaf_count=114 321 90 842 880 79 216 54 190 65 79 89 128 74 88 52 69 60 105 127 178 272 58 51 67 99 104 5608 63 133 91 231 89 110 186
internal_value=0 -0.00226381 -0.00274787 -0.00898855 0.00668239 0.00456793 0.0116817 0.00380796 0.0184266 0.0233854 0.0428198 0.00722617 0.0213408 0.0365772 -0.00010278 -0.0158608 0.00214688 0.000223789 0.00262023 0.00916911 0.00401988 0.0120339 0.0223165 -0.00366077 0.0178627 -0.00474189 -0.000297031 -9.40578e-05 -0.00233825 0.00485753 0.0109406 0.00651976 -0.000790169 0.00359355
internal_weight=0 8155 7966 2244 2907 2467 976 540 440 375 168 207 436 162 1491 184 1307 1196 1091 577 450 274 111 1402 189 514 5722 132 1335 455 322 193 486 376
internal_count=11062 8155 7966 2244 2907 2467 976 540 440 375 168 207 436 162 1491 184 1307 1196 1091 577 450 274 111 1402 189 514 5722 132 1335 455 322 193 486 376
is_linear=0
shrinkage=0.1


Tree=29
num_leaves=35
num_cat=0
split_feature=12 42 18 12 42 12 18 12 18 42 34 12 10 34 10 12 42 34 34 18 12 42 34 12 10 34 34 42 42 18 18 10 42 18
split_gain=65.3219 13.1969 9.20487 11.9575 8.70819 8.48345 6.5527 4.98515 10.0608 8.19988 8.4906 6.20787 7.52598 7.25111 6.01842 4.94082 4.89084 9.03246 4.85889 5.41859 4.50567 5.53763 4.47937 4.37893 4.35469 4.31717 5.81941 4.17889 4.79071 3.83477 3.57437 3.45217 3.38668 3.34939
threshold=8.26962376501824 25.248142686762254 366.61819208757805 32.101440841907035 42.824082909146064 6.0044608601168674 1.0004969901479956 15.695958253538423 40.015417980249005 6.2264364949153936 9.867610917505683 50.763478367892603 1.4902100657641026 4.2326178204320621 6.041952376960495 27.413574323334633 53.310946093888951 24.016964605638034 1.5441120854611967 1.0297000000000052 1.7727045643380173 10.482894243932103 2.0490939036508879 8.5049787643902057 1.6842140704567712 5.5675031737620406 2.2546051017070292 18.353130492111195 4.8945461363024512 1.049599005000015 38.860692568177008 13.932395129007386 4.0972771966085197 41.700338045560095
decision_type=10 10 8 10 10 10 8 10 10 10 10 10 10 10 10 10 10 10 8 10 8 10 10 10 10 10 10 10 10 10 10 10 10 10
left_child=1 5 7 -4 -5 20 -7 8 18 24 11 12 25 -14 -13 -15 33 30 -2 -20 21 22 -1 -21 -9 26 -11 28 31 -8 -18 32 -22 -12
right_child=2 -3 3 4 -6 6 29 9 -10 10 16 14 13 15 -16 -17 17 -19 19 23 27 -23 -24 -25 -26 -27 -28 -29 -30 -31 -32 -33 -34 -35
leaf_value=-0.012938525601814507 0.02674867121236665 -0.036893479639181388 0.0088718629054670792 0.082466642615488847 0.023230634406208994 0.0374977254981382 -0.013200967744062975 0.0066428028006653142 -0.028291856051310078 0.004874514841774643 0.0095803904014161653 0.053167477275969259 0.0093890515936387569 0.058348938916254069 0.012643043922200317 0.021111382376672566 -0.036458011389382788 0.0093975272066610591 -0.014844193530381855 0.032030613577808252 -0.0039866575374824919 -0.041516334370806304 -0.00068131878416954775 0.0050042922098462207 -0.017426502284675457 -0.018608292124488137 0.040071291530157552 0.022738477530785735 -0.012080539620691513 0.0045958447851516095 -0.0031264041458851977 -0.027754606036790488 0.0090380508008752469 0.023085598950274289
leaf_weight=1227 102 132 134 51 52 51 143 164 88 236 853 105 108 90 59 66 71 304 129 61 3010 55 394 992 134 52 56 51 826 707 58 55 211 235
leaf_count=1227 102 132 134 51 52 51 143 164 88 236 853 105 108 90 59 66 71 304 129 61 3010 55 394 992 134 52 56 51 826 707 58 55 211 235
internal_value=0 -0.00592675 0.00990263 0.028943 0.0540649 -0.00530321 0.00371746 0.00874292 0.00385734 0.0113225 0.0133487 0.02188 0.0170721 0.0296829 0.0390776 0.0432902 0.00898401 -8.1712e-06 0.00612153 0.00427831 -0.00669875 -0.0110737 -0.00996605 0.00665647 -0.00424612 0.00722121 0.0119634 -0.00492645 -0.00528677 0.0015659 -0.0218834 -0.00356433 -0.00312582 0.0125529
internal_weight=0 6862 4200 237 103 6730 901 3963 1372 2591 2293 772 608 264 164 156 1521 433 1284 1182 5829 1676 1621 1053 298 344 292 4153 4102 850 129 3276 3221 1088
internal_count=11062 6862 4200 237 103 6730 901 3963 1372 2591 2293 772 608 264 164 156 1521 433 1284 1182 5829 1676 1621 1053 298 344 292 4153 4102 850 129 3276 3221 1088
is_linear=0
shrinkage=0.1


Tree=30
num_leaves=35
num_cat=0
split_feature=12 51 14 14 42 42 14 42 12 14 42 8 22 42 8 8 12 14 42 22 22 12 12 14 8 8 14 14 12 42 42 22 14 12
split_gain=53.0986 30.8044 20.063 15.1131 10.75 7.20395 7.00409 5.88309 8.43445 7.02496 5.61646 4.40066 10.8432 9.54769 6.20434 4.02181 3.97831 5.7719 4.20372 5.89442 3.9738 3.58427 3.53096 4.05777 3.44718 5.1236 3.23831 7.05805 9.71306 4.79991 3.67022 14.1383 6.62877 3.08672
